   0.02344,  -0.00781,   0.07812,  -0.04688,  -0.01562,  -0.01562,   0.04688,   0.00781,   0.03125,   0.03125,  -0.14062,  -0.04688,  -0.00000,   0.14844,   0.03906,  -0.00000,   0.00781,   0.00000,  -0.03125,   0.01562,   0.01562,   0.12500,  -0.00781,   0.02344,  -0.02344,   0.04688,   0.02344,   0.01562,  -0.01562,   0.01562,   0.00781,  -0.03906,   0.01562,   0.02344,   0.00781,  -0.02344,  -0.00781,   0.01562,  -0.03125,   0.04688,   0.00781,  -0.00000,  -0.00000,  -0.02344,   0.02344,  -0.14844,   0.00781,   0.01562,   0.01562,   0.02344,   0.00781,   0.05469,  -0.07812,   0.02344,  -0.00000,  -0.00781,  -0.09375,  -0.03125,  -0.05469,  -0.02344,   0.07812,   0.03125,   0.02344,   0.03906
  -0.00781,  -0.03125,   0.04688,  -0.06250,   0.04688,   0.01562,  -0.03906,   0.01562,  -0.00000,   0.01562,  -0.12500,  -0.06250,  -0.03906,  -0.00781,   0.02344,  -0.03906,   0.00781,  -0.00000,  -0.09375,   0.02344,   0.02344,   0.07812,  -0.03125,   0.03906,   0.00000,   0.07812,   0.01562,  -0.01562,  -0.01562,   0.03125,  -0.02344,  -0.05469,   0.03125,   0.02344,  -0.04688,   0.01562,   0.00000,   0.00781,   0.01562,   0.00000,  -0.02344,  -0.06250,  -0.03125,  -0.05469,   0.06250,   0.03125,   0.00000,  -0.00781,   0.00000,   0.02344,   0.00781,   0.07031,  -0.03125,   0.02344,   0.01562,   0.00781,   0.01562,  -0.03125,  -0.01562,  -0.07812,   0.09375,   0.07031,  -0.01562,   0.00000
  -0.00000,   0.01562,   0.00000,  -0.03906,   0.01562,   0.05469,  -0.03125,  -0.01562,  -0.00000,   0.01562,   0.12500,  -0.00781,   0.02344,  -0.11719,  -0.04688,  -0.01562,   0.03125,  -0.01562,  -0.07812,   0.01562,   0.03906,  -0.06250,  -0.01562,   0.01562,   0.01562,  -0.07031,   0.01562,  -0.02344,  -0.01562,   0.03906,   0.00781,  -0.08594,  -0.01562,  -0.00781,  -0.02344,  -0.07031,   0.02344,  -0.00781,  -0.05469,   0.00781,   0.01562,  -0.03906,  -0.02344,  -0.03125,   0.06250,   0.07031,  -0.00781,   0.05469,   0.02344,   0.02344,   0.00000,   0.06250,  -0.02344,   0.04688,  -0.00000,  -0.05469,   0.07031,   0.02344,   0.03906,   0.03906,   0.05469,   0.00781,  -0.00781,  -0.06250
  -0.02344,  -0.03125,   0.03906,  -0.03906,  -0.02344,  -0.06250,   0.00781,  -0.03125,   0.00781,  -0.02344,  -0.18750,   0.00781,  -0.00781,   0.29688,   0.06250,   0.01562,   0.01562,   0.00781,  -0.07812,  -0.00781,  -0.03906,   0.06250,  -0.00781,   0.03906,  -0.00781,  -0.01562,  -0.01562,  -0.00781,   0.00000,   0.03125,   0.10938,  -0.01562,   0.06250,   0.00781,   0.01562,   0.04688,  -0.03906,   0.01562,   0.00000,   0.06250,   0.03906,   0.05469,   0.03906,  -0.00000,   0.01562,  -0.15625,   0.01562,  -0.00781,   0.01562,   0.03906,  -0.02344,  -0.06250,  -0.03906,  -0.00781,   0.01562,  -0.03125,  -0.18750,   0.02344,  -0.05469,   0.03906,  -0.09375,  -0.01562,   0.01562,   0.03906
  -0.01562,  -0.00781,  -0.01562,  -0.06250,   0.01562,  -0.12500,  -0.03125,   0.02344,  -0.03906,  -0.03906,  -0.17188,   0.03906,  -0.13281,  -0.08594,   0.00781,   0.09375,  -0.03125,  -0.00000,  -0.17188,  -0.02344,  -0.04688,  -0.03906,  -0.03906,   0.09375,  -0.00781,   0.04688,  -0.03906,  -0.02344,   0.01562,  -0.00000,   0.08594,  -0.12500,   0.04688,   0.00781,  -0.05469,   0.11719,   0.03125,   0.02344,   0.14062,  -0.03125,   0.03906,  -0.00781,   0.01562,  -0.03125,   0.02344,   0.08594,   0.01562,  -0.04688,   0.00000,  -0.01562,   0.00781,  -0.19531,   0.03125,  -0.00781,  -0.01562,   0.00000,   0.03906,   0.03125,   0.03906,  -0.20312,  -0.07031,  -0.05469,   0.00000,   0.00000
  -0.03906,  -0.02344,  -0.03125,  -0.03125,   0.00000,   0.07812,  -0.07031,  -0.01562,  -0.01562,  -0.05469,   0.11719,   0.10156,   0.03125,  -0.35938,  -0.01562,  -0.00000,   0.00000,  -0.01562,  -0.13281,  -0.00781,  -0.00781,  -0.13281,  -0.00781,  -0.03906,  -0.01562,  -0.05469,  -0.00781,  -0.00000,   0.01562,  -0.00000,   0.12500,  -0.07031,  -0.03125,  -0.05469,   0.00000,  -0.07031,   0.03906,   0.00000,   0.08594,  -0.00781,   0.00781,   0.02344,   0.00781,  -0.01562,   0.05469,   0.16406,   0.01562,  -0.03906,   0.01562,   0.00781,  -0.03906,   0.03906,   0.03125,   0.00781,  -0.03125,  -0.05469,   0.12500,   0.06250,   0.12500,   0.01562,  -0.05469,  -0.06250,  -0.03125,  -0.02344
   0.04688,   0.00781,  -0.01562,  -0.01562,   0.00000,   0.03125,   0.03125,  -0.03906,   0.04688,   0.02344,  -0.03125,  -0.06250,   0.01562,   0.07812,   0.02344,  -0.03125,   0.00000,   0.02344,  -0.02344,   0.01562,  -0.00781,   0.14062,   0.03125,   0.00781,   0.02344,   0.02344,  -0.00781,  -0.01562,  -0.01562,   0.02344,   0.00781,   0.03125,   0.03906,  -0.01562,   0.02344,   0.01562,  -0.06250,  -0.00781,  -0.06250,   0.01562,   0.04688,   0.04688,   0.00781,  -0.00000,  -0.13281,  -0.14844,   0.00781,   0.05469,   0.03125,  -0.03906,   0.00000,  -0.03125,  -0.03906,   0.00781,   0.01562,   0.03125,  -0.04688,   0.00000,  -0.00781,   0.07812,  -0.03125,   0.00000,  -0.02344,   0.07812
   0.07812,  -0.02344,  -0.02344,  -0.04688,  -0.00000,  -0.02344,   0.00000,   0.02344,   0.01562,   0.01562,   0.13281,  -0.03125,  -0.03125,  -0.05469,  -0.00781,   0.00781,  -0.01562,   0.02344,  -0.07812,   0.01562,  -0.03125,  -0.02344,   0.00000,  -0.03125,   0.03125,  -0.01562,  -0.02344,   0.02344,  -0.00781,  -0.00781,  -0.03125,  -0.14844,   0.05469,   0.03125,  -0.03906,   0.06250,  -0.00000,  -0.02344,  -0.00781,  -0.08594,   0.04688,   0.03906,   0.00781,   0.00781,  -0.21875,  -0.05469,   0.01562,   0.02344,   0.02344,  -0.02344,   0.01562,  -0.04688,   0.02344,  -0.02344,  -0.00000,   0.07031,  -0.00781,   0.00781,   0.03125,  -0.03906,  -0.01562,  -0.04688,  -0.00000,   0.05469
   0.04688,  -0.00781,  -0.03125,  -0.00781,   0.01562,   0.03906,  -0.00781,   0.02344,   0.02344,   0.00781,   0.17969,   0.05469,   0.00000,  -0.07812,  -0.03125,  -0.02344,   0.07031,   0.01562,  -0.10156,   0.01562,  -0.00000,  -0.07812,   0.02344,  -0.07812,   0.03906,  -0.02344,  -0.02344,   0.04688,   0.00000,   0.00781,  -0.00781,   0.03125,   0.00781,   0.03906,   0.01562,  -0.06250,   0.04688,  -0.03125,  -0.06250,  -0.07031,  -0.05469,   0.02344,   0.00781,   0.02344,  -0.03906,   0.02344,   0.02344,   0.05469,   0.02344,   0.03906,   0.01562,  -0.00781,   0.03125,  -0.00781,   0.01562,   0.00781,   0.04688,   0.03125,   0.06250,  -0.00781,  -0.00781,  -0.04688,   0.00781,  -0.00781
   0.01562,   0.01562,   0.04688,   0.00781,   0.01562,   0.00781,  -0.04688,  -0.03125,   0.02344,  -0.00781,   0.01562,  -0.00000,   0.00781,   0.00781,  -0.00000,  -0.00781,   0.03125,   0.01562,   0.00781,   0.01562,   0.00781,   0.01562,  -0.01562,  -0.06250,  -0.06250,  -0.02344,   0.01562,   0.03125,  -0.00781,   0.03906,  -0.01562,  -0.02344,   0.00781,   0.03906,   0.04688,  -0.00000,  -0.00781,  -0.00781,  -0.00781,   0.00781,   0.02344,   0.01562,  -0.00781,   0.01562,  -0.05469,  -0.03125,  -0.03125,  -0.02344,  -0.05469,  -0.00781,   0.00781,  -0.02344,   0.00781,  -0.01562,  -0.03906,   0.02344,  -0.03125,  -0.01562,   0.03125,   0.03125,   0.00781,  -0.00781,   0.00781,   0.02344
  -0.00781,  -0.00000,   0.05469,  -0.00000,   0.09375,  -0.05469,  -0.02344,  -0.05469,  -0.01562,   0.03906,  -0.00781,  -0.00781,  -0.00000,   0.03906,  -0.03125,   0.01562,  -0.00781,   0.03906,   0.04688,   0.05469,   0.01562,   0.03906,  -0.01562,   0.03125,  -0.04688,   0.02344,   0.00000,  -0.02344,  -0.01562,   0.03125,  -0.03125,   0.01562,   0.00000,   0.02344,   0.05469,  -0.00781,   0.02344,  -0.00781,  -0.05469,  -0.02344,  -0.03125,  -0.03125,  -0.00781,   0.01562,  -0.00000,  -0.04688,  -0.03125,   0.02344,  -0.02344,  -0.00781,  -0.03125,  -0.01562,   0.01562,  -0.00781,  -0.00781,   0.06250,  -0.03125,  -0.01562,  -0.03125,   0.03125,   0.02344,   0.00781,  -0.00000,   0.00781
  -0.00781,   0.07031,   0.01562,   0.00000,  -0.00781,   0.00000,  -0.01562,  -0.00781,   0.00781,   0.02344,  -0.02344,   0.02344,  -0.03906,   0.06250,  -0.00781,   0.00781,   0.02344,   0.02344,   0.07031,   0.03125,   0.03125,  -0.00000,  -0.03906,   0.00781,   0.00000,  -0.03906,  -0.00000,  -0.04688,  -0.03125,   0.03906,  -0.02344,  -0.01562,  -0.01562,   0.01562,   0.03906,   0.00781,  -0.02344,   0.00781,  -0.09375,   0.00781,   0.00781,  -0.03125,   0.03125,   0.05469,  -0.00000,   0.00000,   0.03125,   0.08594,  -0.00781,   0.05469,  -0.02344,  -0.03906,   0.05469,  -0.00781,   0.03125,   0.03125,   0.00781,  -0.00781,  -0.03906,  -0.05469,  -0.00781,  -0.00000,   0.00781,   0.01562
  -0.03906,  -0.03125,  -0.03906,   0.00781,   0.00000,   0.00781,  -0.00781,  -0.03125,   0.03906,  -0.04688,   0.00000,   0.02344,  -0.01562,   0.03125,   0.03125,  -0.08594,   0.07812,   0.01562,   0.01562,  -0.02344,   0.00781,   0.03125,  -0.00781,  -0.00781,  -0.01562,   0.01562,  -0.00781,   0.03125,  -0.00781,   0.00781,   0.00781,   0.02344,  -0.00781,  -0.03125,  -0.00000,  -0.01562,  -0.05469,   0.01562,   0.00781,   0.03125,  -0.02344,  -0.01562,  -0.00781,   0.01562,   0.13281,  -0.01562,  -0.00781,   0.03906,  -0.02344,   0.03125,  -0.02344,  -0.08594,   0.01562,  -0.03906,   0.00000,   0.00000,  -0.10938,   0.00781,  -0.00781,  -0.03125,  -0.00781,  -0.00000,  -0.00000,  -0.07812
  -0.02344,  -0.07812,   0.02344,   0.01562,   0.03125,   0.02344,   0.05469,   0.00781,   0.00781,  -0.01562,  -0.10156,   0.05469,  -0.10156,  -0.08594,   0.01562,  -0.00781,   0.06250,   0.02344,   0.05469,   0.02344,   0.02344,  -0.09375,   0.02344,   0.06250,  -0.03906,   0.07812,  -0.01562,  -0.02344,  -0.00781,  -0.00781,  -0.01562,   0.01562,   0.01562,  -0.09375,  -0.00781,   0.01562,  -0.04688,   0.04688,   0.12500,   0.06250,  -0.05469,  -0.03125,  -0.00781,   0.01562,   0.15625,  -0.02344,  -0.03125,   0.02344,  -0.00781,  -0.02344,   0.03125,  -0.10938,  -0.00781,   0.00000,  -0.04688,   0.05469,   0.00781,   0.03125,  -0.01562,   0.00781,  -0.06250,   0.01562,  -0.00781,  -0.11719
  -0.05469,  -0.01562,  -0.02344,   0.02344,  -0.06250,   0.07031,   0.04688,  -0.08594,   0.03906,  -0.03906,  -0.12500,   0.03125,  -0.03906,  -0.17969,   0.02344,  -0.00781,   0.02344,   0.01562,   0.10938,   0.01562,   0.03125,  -0.08594,   0.00781,   0.01562,  -0.02344,  -0.05469,   0.00781,   0.00000,  -0.00781,   0.02344,  -0.02344,  -0.01562,  -0.03125,  -0.05469,   0.00781,  -0.00781,  -0.03125,   0.01562,   0.08594,   0.04688,  -0.03906,  -0.01562,  -0.00000,   0.03125,   0.06250,   0.03125,   0.00781,   0.04688,   0.00000,  -0.00781,  -0.02344,  -0.02344,   0.00781,   0.00781,  -0.07812,   0.07812,   0.05469,  -0.00000,   0.01562,  -0.01562,  -0.00781,   0.00781,   0.03125,  -0.07031
  -0.00000,   0.03906,  -0.03125,   0.04688,   0.02344,  -0.04688,  -0.03906,  -0.03125,  -0.02344,  -0.00781,   0.04688,  -0.07031,  -0.05469,  -0.02344,  -0.05469,   0.00000,  -0.11719,   0.00000,   0.02344,  -0.07031,   0.02344,   0.07812,  -0.01562,   0.03906,   0.03125,  -0.01562,   0.01562,   0.00781,   0.00781,   0.03125,   0.03125,  -0.05469,   0.00781,   0.03906,  -0.03125,   0.04688,   0.05469,  -0.03906,  -0.02344,  -0.04688,   0.07031,   0.02344,   0.02344,  -0.02344,  -0.10156,  -0.01562,   0.05469,   0.02344,   0.03906,   0.03125,  -0.03906,  -0.10938,  -0.02344,   0.02344,  -0.01562,  -0.01562,  -0.01562,  -0.04688,   0.01562,  -0.00781,  -0.03906,  -0.03125,   0.07812,  -0.00781
   0.04688,  -0.04688,  -0.06250,   0.00781,  -0.02344,   0.00000,  -0.07812,   0.00000,  -0.01562,   0.07031,   0.07031,  -0.06250,  -0.02344,  -0.05469,  -0.07812,   0.04688,  -0.03906,  -0.00000,   0.09375,  -0.03125,   0.03125,  -0.06250,  -0.00000,  -0.00000,   0.00000,  -0.00781,   0.01562,   0.00781,  -0.01562,  -0.00000,  -0.00781,  -0.12500,  -0.07812,   0.04688,  -0.07812,   0.03906,   0.04688,  -0.03906,   0.03125,  -0.07031,   0.09375,   0.09375,  -0.00781,   0.05469,  -0.16406,  -0.00781,   0.00000,  -0.08594,   0.02344,   0.00000,  -0.01562,  -0.10938,  -0.02344,   0.03125,   0.00781,  -0.02344,   0.03906,  -0.01562,  -0.00781,   0.03125,  -0.04688,  -0.07031,   0.00781,  -0.03125
   0.05469,   0.00781,   0.02344,   0.00781,   0.02344,  -0.02344,   0.03125,  -0.03906,  -0.00000,   0.02344,  -0.03125,  -0.00781,  -0.01562,  -0.00000,   0.01562,   0.03125,   0.08594,   0.01562,   0.07031,  -0.04688,   0.02344,  -0.11719,  -0.00781,  -0.03906,  -0.00781,  -0.00781,   0.00781,   0.01562,  -0.00781,   0.00781,  -0.04688,   0.02344,  -0.03125,   0.03906,  -0.05469,  -0.04688,   0.05469,  -0.02344,  -0.01562,  -0.00781,   0.01562,   0.10938,  -0.00781,   0.02344,  -0.03125,  -0.01562,   0.00000,  -0.07031,   0.00000,   0.00781,  -0.01562,  -0.08594,  -0.03125,   0.01562,   0.00781,   0.00781,   0.03906,  -0.02344,  -0.02344,  -0.00781,  -0.04688,  -0.04688,   0.00000,  -0.02344
   0.02344,  -0.03125,   0.03906,   0.00781,  -0.03906,   0.03906,  -0.02344,   0.00781,  -0.03125,  -0.03125,   0.00781,  -0.03906,  -0.01562,  -0.07812,  -0.03906,   0.00000,  -0.03125,  -0.00781,  -0.02344,   0.01562,   0.02344,  -0.03906,   0.00781,  -0.03906,  -0.02344,  -0.03125,   0.02344,  -0.03125,  -0.00000,  -0.00781,   0.05469,   0.01562,  -0.01562,  -0.01562,  -0.01562,  -0.03125,  -0.03125,  -0.03906,  -0.02344,  -0.00781,  -0.03125,  -0.03125,  -0.02344,   0.03125,  -0.02344,   0.00781,  -0.02344,   0.01562,  -0.01562,  -0.03906,  -0.05469,   0.01562,   0.07031,   0.00000,   0.03906,  -0.00781,   0.00781,  -0.01562,  -0.00781,  -0.00781,  -0.00781,  -0.01562,  -0.06250,  -0.02344
   0.00781,  -0.05469,   0.03906,   0.01562,  -0.03125,   0.05469,  -0.02344,  -0.01562,  -0.01562,  -0.03906,  -0.03906,  -0.03906,  -0.03906,  -0.02344,  -0.03125,  -0.00000,   0.01562,  -0.00781,  -0.03906,   0.09375,   0.00000,  -0.03125,   0.01562,  -0.01562,  -0.03125,  -0.05469,   0.03125,   0.01562,  -0.00000,   0.02344,   0.07031,   0.00781,  -0.03125,   0.01562,   0.01562,  -0.00781,  -0.02344,  -0.03906,  -0.03125,  -0.02344,  -0.00781,  -0.02344,  -0.01562,   0.02344,   0.00000,  -0.03125,  -0.02344,   0.01562,  -0.04688,  -0.01562,  -0.01562,  -0.03125,   0.04688,   0.00000,   0.02344,  -0.01562,  -0.02344,  -0.04688,  -0.00000,   0.00000,  -0.01562,   0.00781,  -0.03906,  -0.00000
  -0.00781,  -0.06250,   0.03906,   0.01562,  -0.04688,  -0.00000,  -0.03906,   0.01562,   0.02344,  -0.01562,  -0.02344,  -0.03125,  -0.03906,   0.02344,  -0.06250,   0.00000,   0.02344,   0.01562,  -0.03125,   0.03906,   0.00781,  -0.01562,   0.02344,  -0.00781,  -0.03906,  -0.04688,   0.05469,  -0.03906,  -0.01562,  -0.00000,   0.06250,  -0.01562,  -0.03125,   0.00000,  -0.00781,   0.05469,  -0.01562,  -0.03906,  -0.03125,  -0.04688,  -0.01562,  -0.00781,   0.00781,   0.01562,  -0.00781,  -0.02344,  -0.03125,   0.02344,   0.00781,   0.00781,  -0.02344,  -0.09375,  -0.00781,   0.02344,   0.02344,   0.00000,  -0.03125,  -0.02344,  -0.01562,  -0.01562,   0.01562,   0.00781,  -0.03125,  -0.03125
  -0.00781,  -0.03125,   0.01562,   0.03906,  -0.02344,  -0.03125,  -0.00781,   0.00781,  -0.03906,  -0.03125,  -0.07031,  -0.04688,  -0.01562,  -0.10156,  -0.06250,  -0.02344,  -0.02344,   0.00000,  -0.03125,  -0.03906,   0.01562,  -0.03906,   0.02344,  -0.05469,  -0.01562,   0.00781,  -0.00781,  -0.02344,   0.01562,  -0.00000,   0.03125,   0.03906,  -0.03125,   0.00000,  -0.00781,  -0.03906,   0.00781,  -0.01562,  -0.01562,  -0.02344,  -0.06250,   0.00000,  -0.00781,   0.01562,  -0.01562,  -0.03125,  -0.01562,  -0.00781,  -0.05469,  -0.06250,  -0.02344,  -0.04688,   0.02344,  -0.03906,  -0.02344,  -0.00781,  -0.01562,   0.00781,  -0.01562,  -0.04688,  -0.02344,  -0.06250,  -0.03125,  -0.03125
  -0.02344,  -0.03906,  -0.01562,   0.04688,  -0.01562,  -0.03906,  -0.00781,  -0.03125,  -0.02344,  -0.03906,  -0.06250,  -0.03906,  -0.03906,  -0.07031,  -0.05469,  -0.03125,   0.00781,   0.00000,  -0.04688,   0.03906,  -0.00781,  -0.03906,   0.02344,   0.00781,  -0.00781,  -0.07812,   0.00781,   0.00781,   0.02344,  -0.00781,   0.02344,   0.03906,  -0.04688,   0.02344,   0.00000,  -0.04688,   0.00781,  -0.01562,  -0.02344,  -0.00000,  -0.05469,  -0.00781,  -0.01562,   0.01562,   0.00000,  -0.04688,  -0.01562,   0.00000,  -0.06250,  -0.05469,  -0.03125,  -0.07031,  -0.01562,  -0.01562,  -0.02344,  -0.03125,  -0.04688,  -0.01562,  -0.03125,  -0.03906,  -0.01562,  -0.05469,  -0.03906,  -0.03906
  -0.03125,  -0.01562,  -0.03125,   0.03125,  -0.02344,  -0.03906,  -0.01562,  -0.01562,   0.04688,  -0.01562,  -0.04688,  -0.00000,  -0.03125,  -0.03906,  -0.07031,  -0.05469,   0.01562,   0.01562,  -0.03906,   0.00781,   0.01562,  -0.04688,   0.02344,   0.06250,  -0.03125,  -0.04688,   0.02344,  -0.03906,   0.00781,  -0.03906,   0.03906,   0.01562,  -0.03906,  -0.01562,  -0.01562,  -0.04688,   0.00781,  -0.01562,  -0.04688,  -0.04688,  -0.05469,  -0.03125,  -0.01562,  -0.01562,  -0.00000,  -0.07812,  -0.01562,   0.01562,   0.00781,  -0.02344,  -0.02344,  -0.07031,  -0.05469,   0.01562,  -0.03125,  -0.00000,   0.01562,  -0.01562,  -0.03906,  -0.02344,  -0.01562,  -0.04688,  -0.01562,  -0.05469
  -0.03125,  -0.02344,   0.00781,   0.03125,  -0.04688,  -0.02344,  -0.03125,   0.00781,  -0.03125,  -0.01562,  -0.03125,  -0.08594,  -0.00781,  -0.06250,  -0.00781,  -0.04688,   0.01562,   0.00000,  -0.02344,  -0.02344,   0.01562,   0.01562,   0.00781,  -0.07031,  -0.02344,  -0.03906,  -0.00781,  -0.04688,  -0.00781,   0.01562,   0.02344,  -0.03906,  -0.00781,  -0.00000,  -0.02344,  -0.02344,  -0.01562,   0.00781,  -0.03125,  -0.03125,   0.00781,  -0.03125,  -0.03125,   0.00781,  -0.05469,  -0.07031,   0.00781,   0.00000,  -0.00781,  -0.03906,  -0.00781,  -0.07031,  -0.02344,  -0.03125,   0.00781,  -0.01562,  -0.03125,  -0.00781,  -0.02344,  -0.04688,   0.01562,  -0.08594,  -0.00781,  -0.02344
  -0.04688,  -0.00000,  -0.01562,   0.03125,  -0.04688,  -0.02344,  -0.02344,  -0.01562,  -0.00781,  -0.03906,   0.01562,  -0.05469,  -0.03906,  -0.03125,  -0.01562,  -0.04688,   0.01562,   0.00000,  -0.04688,   0.00000,   0.01562,  -0.00000,  -0.00781,  -0.06250,  -0.00781,  -0.10938,  -0.00781,  -0.01562,  -0.00781,  -0.01562,   0.02344,  -0.05469,  -0.03906,   0.00000,  -0.03906,  -0.04688,  -0.03125,  -0.00000,  -0.03906,  -0.01562,   0.03906,   0.00000,  -0.03906,   0.00781,  -0.07812,  -0.03906,   0.00781,   0.00781,  -0.00781,  -0.01562,  -0.03125,  -0.07812,  -0.03906,   0.00000,  -0.00781,  -0.03125,  -0.02344,  -0.03125,  -0.04688,  -0.01562,   0.00781,  -0.09375,  -0.00781,  -0.03906
  -0.02344,  -0.00000,  -0.03125,   0.00781,  -0.02344,   0.00000,  -0.03906,  -0.02344,   0.04688,  -0.00781,   0.01562,   0.00781,  -0.03906,  -0.00000,  -0.05469,  -0.04688,   0.03906,   0.00781,  -0.06250,  -0.00781,   0.03906,  -0.05469,   0.02344,   0.00000,  -0.03125,  -0.05469,   0.00781,  -0.05469,  -0.01562,  -0.03906,   0.03906,  -0.04688,  -0.03125,  -0.03906,  -0.03906,  -0.07031,  -0.03125,  -0.01562,  -0.05469,  -0.03906,   0.02344,  -0.03125,  -0.02344,  -0.01562,  -0.05469,  -0.07812,   0.00781,   0.02344,   0.04688,   0.00781,   0.00000,  -0.00781,  -0.03125,   0.00781,  -0.01562,  -0.00000,   0.03125,  -0.01562,  -0.02344,   0.00781,  -0.01562,  -0.10156,  -0.00000,  -0.02344
  -0.00781,   0.04688,  -0.11719,   0.03125,   0.00781,  -0.05469,  -0.03906,   0.01562,   0.03125,   0.00781,   0.02344,   0.06250,  -0.00781,  -0.05469,   0.06250,  -0.04688,  -0.01562,   0.01562,  -0.02344,  -0.13281,  -0.05469,   0.09375,   0.00781,   0.02344,  -0.01562,   0.06250,  -0.01562,   0.00781,   0.01562,   0.00781,  -0.01562,   0.00781,   0.02344,   0.02344,   0.01562,   0.02344,  -0.00781,  -0.01562,   0.01562,   0.01562,  -0.00781,  -0.02344,   0.03125,  -0.01562,  -0.07031,   0.00781,   0.01562,   0.02344,  -0.03906,   0.07031,   0.08594,   0.01562,  -0.05469,  -0.07031,   0.05469,  -0.00781,   0.00781,  -0.02344,  -0.10938,   0.03906,   0.08594,   0.03125,   0.00000,  -0.06250
  -0.04688,  -0.06250,  -0.09375,   0.00781,  -0.05469,   0.03125,   0.00781,   0.02344,  -0.13281,   0.07812,  -0.01562,   0.00781,   0.03906,  -0.04688,   0.03906,  -0.00000,  -0.10156,  -0.00781,   0.01562,  -0.01562,  -0.03906,   0.01562,   0.01562,  -0.03906,  -0.01562,  -0.10938,  -0.06250,  -0.04688,   0.01562,  -0.10938,  -0.07031,  -0.00781,  -0.01562,  -0.10156,   0.02344,  -0.04688,  -0.00781,   0.03125,  -0.07812,  -0.00781,  -0.05469,   0.01562,   0.01562,  -0.02344,  -0.00781,   0.03125,   0.02344,  -0.03906,   0.10938,  -0.17969,   0.02344,   0.03906,  -0.01562,   0.00000,   0.08594,   0.02344,  -0.01562,  -0.00781,  -0.03906,   0.05469,   0.00781,   0.04688,   0.02344,  -0.04688
   0.07031,  -0.00781,  -0.21094,   0.02344,  -0.02344,   0.03906,  -0.02344,   0.02344,  -0.10938,   0.02344,  -0.00781,   0.07031,   0.05469,   0.07031,   0.05469,  -0.05469,  -0.10156,  -0.02344,  -0.02344,  -0.03125,  -0.00781,   0.07812,   0.01562,   0.00781,   0.00000,   0.04688,  -0.07812,   0.00781,   0.00000,  -0.08594,  -0.00781,   0.03906,   0.06250,  -0.00781,  -0.00000,  -0.02344,   0.03906,   0.04688,   0.04688,  -0.03906,  -0.03906,  -0.00000,  -0.07812,  -0.03906,  -0.08594,  -0.04688,   0.01562,  -0.02344,  -0.05469,  -0.08594,  -0.00781,   0.03906,  -0.03125,  -0.14062,   0.10156,   0.03906,  -0.03125,  -0.03906,  -0.06250,   0.03125,  -0.00781,   0.08594,  -0.03125,  -0.01562
   0.03125,  -0.00781,  -0.07812,   0.04688,  -0.01562,   0.00781,   0.01562,  -0.02344,  -0.00781,   0.01562,   0.05469,  -0.04688,  -0.00781,  -0.02344,  -0.00781,   0.01562,   0.01562,   0.02344,  -0.02344,  -0.25781,  -0.03906,   0.00781,   0.06250,   0.00000,  -0.03906,   0.07031,   0.00781,  -0.01562,   0.03125,   0.05469,  -0.01562,   0.03125,   0.06250,  -0.02344,  -0.05469,   0.05469,   0.00000,   0.03125,   0.05469,  -0.02344,  -0.04688,  -0.00781,   0.07812,  -0.00000,  -0.00000,   0.02344,  -0.00000,  -0.01562,   0.01562,   0.05469,   0.02344,   0.02344,  -0.07031,   0.03125,  -0.04688,  -0.03125,   0.02344,   0.03125,  -0.10156,  -0.02344,  -0.03125,   0.00781,   0.00781,  -0.03906
  -0.01562,   0.07031,  -0.11719,  -0.01562,   0.03906,   0.07031,   0.09375,  -0.01562,  -0.15625,  -0.03125,   0.05469,  -0.18750,   0.00000,  -0.06250,   0.00781,   0.02344,  -0.19531,  -0.03906,  -0.02344,  -0.07031,   0.00781,  -0.04688,   0.04688,  -0.03125,  -0.00000,  -0.07812,   0.10156,  -0.11719,   0.02344,  -0.16406,  -0.11719,   0.05469,  -0.03125,  -0.17188,  -0.03125,  -0.02344,  -0.02344,  -0.09375,  -0.08594,   0.05469,  -0.09375,   0.05469,   0.02344,  -0.02344,   0.04688,   0.02344,  -0.00000,  -0.10938,   0.14062,  -0.20312,  -0.01562,  -0.03906,   0.00000,   0.08594,  -0.12500,   0.01562,  -0.00000,  -0.07031,   0.03125,   0.01562,  -0.00000,  -0.07031,   0.09375,  -0.02344
   0.05469,   0.02344,  -0.23438,  -0.02344,  -0.01562,   0.01562,   0.00781,  -0.00000,  -0.04688,  -0.07031,  -0.05469,  -0.03125,   0.07812,   0.07031,  -0.07031,  -0.03125,  -0.12500,  -0.02344,  -0.02344,   0.07812,   0.00000,   0.04688,  -0.04688,   0.05469,  -0.03125,   0.06250,   0.05469,  -0.00781,  -0.00781,  -0.10938,  -0.04688,   0.00781,   0.01562,   0.05469,   0.05469,  -0.00781,   0.03906,  -0.01562,  -0.07031,  -0.11719,  -0.03906,  -0.01562,  -0.08594,  -0.11719,  -0.00000,  -0.08594,  -0.00781,  -0.10938,  -0.03906,  -0.10938,  -0.02344,   0.03125,   0.02344,  -0.19531,   0.06250,  -0.00781,   0.00781,  -0.06250,   0.09375,   0.07812,   0.04688,   0.01562,  -0.01562,   0.03906
   0.03125,  -0.02344,  -0.03906,   0.07031,  -0.02344,  -0.03125,  -0.08594,  -0.03125,  -0.04688,  -0.04688,  -0.02344,   0.00000,  -0.00781,  -0.00000,  -0.03906,  -0.06250,   0.01562,   0.02344,  -0.00000,  -0.10156,  -0.04688,  -0.00000,   0.02344,  -0.00781,  -0.03906,   0.06250,  -0.03906,   0.00781,  -0.00000,   0.03125,  -0.01562,   0.05469,  -0.03125,   0.01562,   0.02344,   0.00000,  -0.01562,   0.01562,   0.06250,  -0.07031,  -0.02344,  -0.03906,  -0.00781,   0.03125,  -0.00000,  -0.00781,  -0.01562,   0.00000,  -0.05469,   0.04688,  -0.06250,   0.03906,  -0.11719,  -0.10156,  -0.00000,  -0.03125,  -0.02344,   0.00781,  -0.03906,  -0.02344,  -0.05469,   0.07031,   0.00000,   0.02344
   0.03125,   0.00000,  -0.00781,  -0.00781,   0.03906,   0.01562,  -0.02344,   0.01562,  -0.03125,   0.01562,  -0.03125,   0.02344,  -0.00781,  -0.00000,   0.00781,  -0.04688,  -0.03906,   0.00781,   0.00781,  -0.01562,  -0.01562,   0.02344,   0.02344,  -0.03906,   0.01562,   0.06250,  -0.05469,   0.06250,  -0.00781,  -0.04688,  -0.02344,   0.07031,  -0.00781,  -0.00781,   0.06250,  -0.03125,   0.07031,  -0.03906,   0.05469,  -0.00781,  -0.07031,  -0.02344,   0.00000,   0.07812,   0.03125,   0.02344,  -0.00781,  -0.03906,  -0.03906,   0.03906,   0.05469,   0.06250,  -0.10938,  -0.00781,  -0.03906,   0.03906,  -0.03906,   0.00781,   0.01562,   0.00000,   0.03125,  -0.01562,  -0.03125,   0.10938
  -0.06250,  -0.05469,  -0.07031,   0.00781,  -0.00781,   0.00781,   0.03125,   0.08594,  -0.03906,   0.01562,  -0.00781,   0.04688,   0.03906,  -0.00000,  -0.06250,   0.03125,   0.03125,   0.00781,  -0.05469,  -0.08594,  -0.02344,   0.00781,  -0.03125,   0.05469,  -0.00000,   0.05469,  -0.05469,   0.11719,   0.01562,   0.02344,  -0.03906,   0.01562,   0.00781,   0.03906,  -0.01562,   0.00781,   0.06250,  -0.00000,   0.04688,  -0.07031,  -0.11719,  -0.07812,  -0.00781,  -0.12500,   0.01562,  -0.05469,  -0.00781,  -0.01562,  -0.09375,   0.04688,   0.03125,   0.07812,  -0.07812,  -0.05469,   0.02344,   0.01562,  -0.01562,   0.04688,  -0.03125,   0.01562,   0.01562,   0.01562,  -0.03906,   0.05469
   0.06250,   0.07031,  -0.07812,   0.07812,   0.05469,   0.01562,  -0.00781,   0.01562,   0.01562,   0.01562,  -0.01562,   0.10156,  -0.00781,  -0.02344,  -0.04688,  -0.00781,  -0.01562,  -0.01562,   0.02344,   0.03125,  -0.01562,  -0.00781,   0.00781,   0.03125,   0.01562,   0.07812,  -0.06250,  -0.07812,  -0.01562,  -0.00781,   0.00000,  -0.03906,   0.04688,   0.02344,   0.01562,  -0.01562,   0.01562,  -0.07031,   0.03125,  -0.03125,   0.03906,   0.01562,  -0.02344,  -0.03125,  -0.02344,  -0.03906,  -0.02344,   0.02344,   0.01562,   0.00000,   0.01562,   0.02344,  -0.03125,   0.01562,  -0.03125,   0.02344,   0.07812,  -0.02344,   0.07812,   0.01562,   0.04688,  -0.12500,   0.05469,  -0.00781
   0.07812,   0.03906,  -0.02344,   0.08594,   0.07812,   0.04688,   0.00781,   0.01562,   0.00000,  -0.00000,  -0.00000,  -0.00781,   0.03906,   0.02344,  -0.02344,   0.00000,   0.00781,  -0.02344,   0.03125,   0.02344,  -0.00000,  -0.00781,   0.03906,   0.06250,   0.01562,   0.05469,  -0.04688,  -0.02344,  -0.00781,  -0.02344,   0.00781,  -0.03125,   0.03125,  -0.00781,   0.03125,  -0.04688,   0.00781,  -0.07031,   0.02344,  -0.00781,   0.03906,  -0.02344,  -0.01562,  -0.02344,  -0.01562,  -0.05469,  -0.00781,   0.01562,   0.02344,   0.03125,   0.01562,   0.07812,  -0.00781,   0.03125,  -0.01562,   0.02344,   0.03125,  -0.02344,   0.00781,   0.03125,   0.00000,  -0.11719,   0.05469,  -0.02344
   0.07031,   0.05469,   0.01562,   0.04688,   0.04688,  -0.01562,   0.02344,  -0.00000,  -0.00781,  -0.02344,  -0.03906,  -0.10938,   0.02344,   0.08594,  -0.00781,   0.00000,   0.03125,  -0.02344,   0.03906,   0.03906,   0.00000,  -0.03906,   0.04688,   0.08594,   0.01562,  -0.00781,  -0.03906,   0.03125,  -0.00000,   0.00781,   0.01562,  -0.03906,   0.00781,  -0.01562,   0.05469,   0.01562,   0.00000,  -0.04688,   0.00781,   0.01562,   0.04688,  -0.01562,  -0.00781,  -0.04688,  -0.01562,  -0.01562,  -0.00781,   0.02344,   0.07812,   0.06250,   0.03125,   0.04688,   0.02344,   0.03125,   0.00000,   0.01562,  -0.00781,  -0.03125,  -0.01562,  -0.02344,   0.00000,  -0.08594,   0.08594,  -0.00781
   0.00781,   0.02344,  -0.03906,   0.07812,   0.00781,  -0.01562,  -0.01562,   0.00781,   0.01562,   0.01562,   0.00000,   0.12500,  -0.01562,  -0.03125,  -0.01562,  -0.02344,   0.03125,   0.01562,  -0.00781,   0.04688,  -0.03125,   0.00781,   0.02344,  -0.00781,   0.01562,   0.06250,  -0.05469,  -0.07031,   0.00000,   0.00000,   0.00781,   0.02344,   0.03125,   0.05469,  -0.00000,  -0.02344,   0.01562,  -0.01562,   0.04688,  -0.03125,   0.02344,   0.04688,  -0.03125,  -0.01562,  -0.00000,   0.00000,  -0.00781,   0.03125,   0.00781,  -0.00781,   0.03125,  -0.04688,  -0.01562,   0.02344,   0.00781,   0.00781,   0.07812,   0.00000,   0.08594,   0.00000,   0.06250,  -0.01562,   0.03906,   0.00000
   0.01562,  -0.00781,   0.00781,   0.08594,   0.00781,   0.01562,  -0.00000,  -0.00781,  -0.00000,   0.00000,  -0.00781,   0.00000,   0.02344,   0.00781,  -0.00781,  -0.02344,   0.02344,   0.00781,  -0.00781,   0.03906,  -0.02344,  -0.00000,   0.05469,   0.02344,   0.01562,   0.03906,  -0.03125,   0.00000,   0.01562,  -0.02344,   0.00781,   0.06250,   0.01562,   0.01562,   0.00781,  -0.04688,   0.02344,  -0.00781,   0.08594,   0.00000,   0.01562,  -0.00781,  -0.03125,  -0.00000,   0.01562,  -0.00781,  -0.00000,  -0.00000,   0.00781,   0.03125,   0.03125,   0.01562,   0.00781,   0.04688,   0.02344,   0.00000,   0.01562,   0.01562,   0.00781,   0.05469,   0.03125,   0.02344,   0.01562,   0.00781
  -0.00000,   0.04688,   0.03906,   0.03125,   0.03125,  -0.03906,   0.01562,  -0.02344,   0.00781,  -0.01562,  -0.04688,  -0.12500,   0.00781,   0.05469,  -0.00781,  -0.00000,   0.03906,  -0.00000,  -0.00000,   0.05469,  -0.00781,  -0.02344,   0.06250,   0.07031,   0.00781,  -0.03906,  -0.02344,   0.07812,   0.01562,  -0.00781,   0.01562,  -0.00000,  -0.01562,  -0.01562,   0.04688,   0.02344,   0.01562,  -0.00000,   0.06250,   0.02344,   0.03125,  -0.00000,  -0.01562,  -0.03125,  -0.00000,   0.02344,  -0.00781,   0.00000,   0.05469,   0.07031,   0.01562,  -0.02344,   0.03906,   0.04688,   0.00781,  -0.00781,  -0.01562,  -0.01562,  -0.01562,   0.01562,   0.03125,   0.03906,   0.05469,   0.03125
   0.01562,   0.03906,   0.00000,   0.08594,  -0.01562,  -0.07812,  -0.00781,   0.00781,   0.03125,   0.03125,   0.00000,   0.09375,  -0.03125,  -0.01562,   0.00781,   0.01562,   0.01562,   0.02344,  -0.04688,   0.06250,  -0.03125,   0.01562,   0.03125,  -0.01562,   0.00000,  -0.03125,  -0.04688,  -0.05469,   0.00781,   0.00000,   0.01562,   0.07031,   0.00000,   0.07812,   0.01562,   0.04688,   0.01562,   0.04688,   0.02344,  -0.03125,   0.00781,   0.06250,  -0.03906,   0.00000,   0.01562,   0.06250,  -0.02344,   0.02344,   0.04688,  -0.03125,   0.05469,  -0.15625,   0.01562,   0.04688,   0.00000,   0.01562,   0.06250,  -0.01562,   0.06250,  -0.03125,   0.08594,   0.07812,   0.07812,  -0.00781
   0.02344,   0.04688,   0.03125,   0.07812,  -0.04688,  -0.04688,  -0.00000,  -0.02344,   0.00781,   0.00781,  -0.00000,  -0.00781,  -0.02344,  -0.01562,   0.00781,   0.01562,   0.00781,   0.00781,  -0.04688,   0.03906,  -0.02344,   0.00781,   0.04688,   0.01562,   0.01562,  -0.05469,  -0.02344,  -0.01562,   0.00781,  -0.02344,   0.00781,   0.11719,  -0.00000,   0.04688,   0.02344,   0.03125,   0.00781,   0.06250,   0.03906,  -0.01562,   0.02344,   0.02344,  -0.03906,   0.00781,   0.02344,   0.06250,  -0.02344,  -0.00781,   0.03906,  -0.00781,   0.07031,  -0.10156,   0.04688,   0.05469,   0.01562,  -0.01562,   0.03125,  -0.03125,  -0.00000,  -0.00000,   0.07031,   0.12500,   0.03906,  -0.00000
  -0.00781,   0.08594,   0.04688,   0.03906,   0.01562,  -0.06250,  -0.00781,  -0.03906,   0.00781,  -0.00000,  -0.00781,  -0.10156,  -0.01562,   0.00000,   0.00781,   0.02344,   0.01562,  -0.00000,  -0.03906,   0.04688,  -0.00781,   0.00781,   0.06250,   0.06250,   0.00781,  -0.06250,  -0.02344,   0.03906,   0.01562,  -0.00781,   0.00781,   0.03125,   0.00000,   0.00000,   0.03906,   0.04688,   0.00000,   0.04688,   0.03906,   0.01562,   0.03906,   0.03125,  -0.03125,  -0.02344,   0.01562,   0.07031,  -0.01562,  -0.00781,   0.07812,   0.03906,   0.04688,  -0.07812,   0.07031,   0.06250,   0.00781,  -0.02344,   0.01562,  -0.04688,  -0.00781,   0.00781,   0.04688,   0.12500,   0.04688,   0.02344
   0.04688,  -0.01562,   0.00781,   0.00781,   0.03906,   0.01562,  -0.02344,   0.10156,  -0.00000,  -0.09375,  -0.03125,   0.02344,   0.03125,  -0.00781,   0.03125,   0.03906,   0.01562,  -0.05469,   0.02344,  -0.03906,  -0.00000,   0.04688,   0.01562,  -0.01562,   0.00781,   0.07812,   0.00781,   0.00781,   0.02344,  -0.08594,   0.03906,  -0.01562,   0.00781,   0.01562,   0.02344,   0.04688,  -0.12500,   0.03906,  -0.02344,  -0.01562,  -0.00781,   0.00781,  -0.03125,  -0.02344,   0.03125,   0.02344,  -0.03125,   0.00781,   0.03125,  -0.00781,   0.06250,  -0.00781,   0.00781,  -0.07812,   0.00781,  -0.02344,  -0.02344,  -0.00000,  -0.00000,   0.00000,  -0.00781,   0.03125,  -0.00000,  -0.02344
   0.04688,  -0.00000,  -0.03125,   0.03125,  -0.02344,   0.01562,   0.00000,  -0.01562,  -0.01562,  -0.10156,   0.01562,  -0.03125,   0.00781,   0.00000,  -0.19531,   0.02344,  -0.15625,   0.00781,  -0.00781,   0.00781,   0.04688,  -0.03125,   0.03125,  -0.02344,  -0.03906,   0.01562,  -0.05469,  -0.02344,   0.05469,  -0.07812,  -0.03906,  -0.03906,   0.00781,   0.00000,   0.03906,   0.03125,  -0.02344,   0.00781,   0.03125,   0.00781,  -0.04688,  -0.02344,  -0.01562,   0.00781,  -0.00781,  -0.03125,  -0.00000,  -0.06250,   0.08594,  -0.19531,   0.03125,   0.01562,  -0.07031,  -0.00781,  -0.00781,   0.01562,  -0.05469,   0.02344,  -0.03906,   0.00781,   0.00781,   0.04688,  -0.03906,  -0.00781
   0.07031,   0.03125,  -0.06250,   0.00000,   0.01562,   0.03125,   0.02344,  -0.00781,   0.00000,   0.11719,   0.01562,   0.00781,   0.03906,   0.03125,   0.01562,   0.00781,  -0.06250,   0.04688,  -0.03125,   0.01562,   0.07812,   0.07812,  -0.01562,   0.01562,  -0.14844,   0.00000,  -0.02344,  -0.02344,   0.00000,  -0.00781,   0.07031,   0.03125,   0.00781,   0.05469,   0.01562,   0.04688,   0.03906,  -0.07031,   0.02344,  -0.00000,  -0.04688,  -0.04688,   0.04688,  -0.02344,  -0.01562,  -0.00000,   0.02344,  -0.00781,   0.00000,   0.00000,  -0.12500,   0.06250,  -0.03125,   0.02344,  -0.00781,   0.04688,  -0.01562,   0.03125,   0.01562,  -0.03906,   0.06250,   0.03125,  -0.02344,   0.03125
   0.02344,  -0.00781,  -0.00781,  -0.00781,  -0.02344,   0.02344,  -0.01562,   0.03125,   0.04688,  -0.07812,   0.00000,  -0.05469,   0.05469,  -0.02344,  -0.11719,  -0.00000,  -0.08594,  -0.07812,   0.03125,  -0.02344,  -0.05469,   0.00781,   0.01562,  -0.00781,   0.03125,   0.00000,   0.02344,   0.04688,   0.05469,  -0.14844,   0.01562,   0.02344,   0.00781,   0.00000,  -0.01562,   0.04688,   0.04688,  -0.06250,  -0.01562,  -0.00000,  -0.01562,   0.01562,  -0.00781,  -0.05469,   0.02344,   0.03125,   0.01562,  -0.02344,   0.03906,   0.02344,  -0.04688,  -0.01562,  -0.01562,  -0.04688,   0.02344,  -0.00781,   0.01562,  -0.02344,  -0.00000,   0.01562,   0.03125,   0.02344,   0.01562,  -0.00781
  -0.03125,   0.02344,  -0.04688,   0.03125,   0.02344,   0.02344,   0.06250,  -0.00781,  -0.06250,  -0.08594,   0.03906,  -0.19531,   0.00000,   0.03906,   0.05469,   0.00000,  -0.05469,  -0.04688,  -0.01562,   0.00781,   0.04688,  -0.06250,   0.00781,  -0.02344,   0.03906,  -0.11719,  -0.03125,  -0.07031,   0.03906,   0.02344,  -0.10156,  -0.04688,  -0.03906,   0.02344,  -0.00781,   0.01562,  -0.06250,   0.00781,  -0.03906,   0.00000,  -0.01562,   0.03906,  -0.01562,  -0.04688,  -0.00000,   0.00781,  -0.02344,  -0.15625,   0.07031,  -0.40625,  -0.03906,   0.00000,  -0.07031,   0.04688,  -0.03906,  -0.00781,   0.02344,  -0.05469,  -0.01562,   0.03125,   0.00000,  -0.03125,   0.04688,  -0.00000
   0.00000,   0.03125,  -0.04688,  -0.04688,  -0.00000,   0.04688,   0.07031,  -0.04688,   0.00781,   0.07812,  -0.00781,   0.06250,   0.02344,   0.02344,  -0.07031,  -0.00000,   0.00000,   0.03906,  -0.04688,  -0.02344,   0.07812,  -0.00000,  -0.01562,   0.10156,  -0.09375,  -0.00781,   0.02344,  -0.13281,  -0.14844,   0.07031,   0.05469,  -0.01562,  -0.02344,   0.05469,   0.00000,   0.03125,  -0.04688,   0.07031,  -0.07031,   0.00781,   0.03906,  -0.02344,   0.03125,  -0.01562,   0.03125,  -0.04688,  -0.00000,  -0.05469,  -0.02344,  -0.10938,   0.03125,   0.03125,  -0.00781,   0.03125,   0.00000,  -0.01562,  -0.02344,   0.01562,  -0.00781,  -0.00781,   0.02344,  -0.00781,   0.03125,  -0.00000
   0.01562,   0.01562,  -0.00781,  -0.03906,  -0.02344,   0.00000,  -0.03125,  -0.05469,   0.00000,   0.15625,  -0.01562,  -0.02344,   0.00000,  -0.01562,  -0.00781,  -0.01562,  -0.07812,  -0.06250,   0.00781,  -0.00781,  -0.00781,   0.00781,  -0.00781,   0.00781,   0.03906,   0.06250,   0.01562,  -0.00781,   0.07031,  -0.07031,   0.03906,   0.04688,  -0.02344,   0.01562,  -0.01562,  -0.04688,   0.10938,  -0.06250,  -0.03125,   0.02344,  -0.01562,  -0.07031,   0.02344,  -0.03906,   0.02344,  -0.01562,   0.03906,   0.03125,  -0.04688,  -0.01562,  -0.09375,   0.00781,  -0.03125,  -0.00000,   0.02344,   0.04688,   0.00000,   0.02344,  -0.03125,  -0.02344,   0.05469,   0.00781,  -0.05469,   0.01562
  -0.00781,  -0.01562,  -0.05469,   0.03906,   0.01562,   0.00781,  -0.01562,   0.02344,  -0.03906,   0.10156,   0.00000,  -0.13281,   0.00000,  -0.02344,   0.21875,  -0.06250,  -0.13281,  -0.00781,   0.00000,   0.03125,   0.08594,   0.04688,   0.03125,  -0.03906,   0.07812,   0.09375,  -0.04688,  -0.06250,   0.10156,  -0.11719,  -0.00781,   0.00000,   0.02344,   0.05469,   0.00781,  -0.08594,   0.03125,  -0.00000,   0.06250,  -0.00000,  -0.00781,  -0.03125,  -0.03125,   0.01562,  -0.01562,  -0.00781,  -0.00781,  -0.07812,  -0.09375,  -0.05469,  -0.13281,   0.06250,  -0.04688,   0.04688,   0.03906,   0.03125,  -0.00000,   0.05469,  -0.02344,  -0.00781,   0.05469,  -0.03906,   0.00000,  -0.01562
  -0.00781,  -0.00781,  -0.03906,   0.00781,  -0.00781,   0.00781,   0.01562,  -0.01562,  -0.01562,  -0.18750,   0.00781,   0.03906,   0.00781,  -0.01562,  -0.11719,  -0.00781,  -0.00000,   0.04688,  -0.01562,  -0.00781,   0.09375,  -0.05469,   0.01562,   0.03906,  -0.02344,  -0.00781,   0.03906,  -0.01562,  -0.07812,  -0.02344,   0.08594,  -0.02344,  -0.03906,   0.04688,  -0.00781,  -0.04688,  -0.04688,   0.06250,   0.04688,   0.02344,   0.02344,   0.00781,  -0.01562,   0.03125,   0.01562,   0.01562,  -0.00000,  -0.05469,  -0.07031,  -0.04688,   0.04688,   0.03125,   0.00000,  -0.02344,   0.02344,  -0.03906,  -0.05469,   0.06250,   0.02344,  -0.00000,   0.01562,   0.00781,   0.01562,   0.00781
   0.02344,   0.07031,   0.00781,   0.01562,   0.03125,  -0.00000,   0.01562,   0.42188,   0.02344,  -0.02344,  -0.03125,  -0.05469,  -0.01562,   0.00000,  -0.07812,  -0.00000,  -0.28906,  -0.02344,   0.01562,  -0.03906,  -0.01562,   0.00781,   0.02344,   0.01562,   0.00781,   0.04688,  -0.01562,   0.00781,  -0.01562,   0.04688,   0.03125,  -0.02344,  -0.03906,  -0.06250,   0.00781,  -0.00000,  -0.17969,  -0.05469,  -0.01562,  -0.00000,  -0.00781,  -0.00000,   0.08594,  -0.00781,   0.02344,   0.03906,   0.13281,   0.22656,   0.02344,   0.13281,   0.04688,  -0.00781,   0.01562,  -0.01562,  -0.02344,  -0.46875,  -0.02344,   0.01562,   0.03906,  -0.01562,   0.02344,   0.01562,   0.01562,  -0.00781
   0.00781,   0.01562,  -0.00000,   0.01562,   0.01562,   0.01562,   0.01562,   0.55469,   0.01562,   0.00000,  -0.02344,  -0.02344,  -0.03125,   0.00781,  -0.11719,  -0.02344,  -0.03125,  -0.10156,  -0.01562,   0.01562,  -0.00781,  -0.00781,   0.00781,   0.03125,  -0.06250,   0.05469,   0.00781,  -0.00781,  -0.03125,   0.02344,   0.01562,  -0.03906,   0.00781,  -0.04688,   0.01562,  -0.00000,  -0.21875,  -0.04688,   0.01562,   0.00000,  -0.01562,  -0.00000,   0.09375,   0.00000,   0.03906,  -0.01562,   0.14844,  -0.02344,   0.00781,  -0.00000,   0.02344,  -0.01562,  -0.00781,   0.00000,  -0.01562,  -0.58594,  -0.03125,  -0.00781,  -0.01562,   0.04688,  -0.00781,   0.07812,  -0.00781,  -0.01562
  -0.03125,   0.00781,  -0.01562,  -0.01562,  -0.00781,  -0.01562,  -0.00781,   0.30469,   0.00000,  -0.00781,  -0.01562,   0.07812,   0.02344,   0.03125,  -0.07812,  -0.02344,   0.24219,  -0.03906,  -0.03906,  -0.01562,  -0.09375,   0.03125,   0.01562,  -0.03125,  -0.08594,  -0.00000,   0.03906,   0.00000,   0.01562,   0.02344,   0.00781,  -0.00781,   0.00781,  -0.03125,  -0.01562,  -0.02344,  -0.18750,  -0.05469,  -0.03125,   0.01562,  -0.00000,   0.00781,   0.03125,  -0.02344,   0.00781,  -0.00000,  -0.06250,  -0.33594,   0.00781,  -0.07031,   0.03906,  -0.03125,   0.01562,   0.03125,  -0.03125,  -0.43750,  -0.01562,  -0.00781,   0.01562,   0.02344,   0.00000,   0.08594,   0.01562,   0.00000
   0.00000,   0.00000,   0.02344,   0.00781,   0.00000,   0.00781,  -0.00781,   0.06250,  -0.03906,  -0.03906,   0.01562,  -0.06250,  -0.00781,  -0.00781,  -0.00781,  -0.00781,  -0.39062,  -0.08594,   0.03906,  -0.00000,   0.07031,   0.00781,  -0.00781,  -0.01562,  -0.01562,  -0.00781,  -0.02344,   0.01562,  -0.00781,   0.11719,  -0.00781,   0.02344,  -0.03906,  -0.03906,   0.00781,   0.01562,   0.00781,  -0.00781,  -0.01562,   0.00781,   0.00781,  -0.00781,   0.07031,   0.00000,  -0.00000,   0.02344,   0.21094,   0.41406,   0.01562,   0.09375,  -0.01562,  -0.03906,  -0.00000,  -0.01562,   0.01562,   0.00781,   0.02344,   0.01562,   0.03125,  -0.00000,   0.01562,  -0.06250,   0.00781,   0.00781
  -0.02344,  -0.02344,   0.01562,   0.02344,   0.00000,   0.03125,   0.00000,   0.09375,   0.02344,  -0.02344,   0.01562,  -0.03125,  -0.01562,   0.00000,  -0.02344,  -0.03125,  -0.01562,  -0.19531,  -0.00781,   0.06250,   0.08594,  -0.02344,   0.00000,   0.01562,  -0.03125,  -0.01562,   0.01562,  -0.03906,  -0.02344,   0.02344,  -0.06250,   0.00781,  -0.00781,   0.00781,   0.01562,   0.02344,  -0.00000,   0.01562,   0.00781,   0.02344,   0.00781,   0.00781,   0.07812,   0.03906,   0.00781,  -0.00781,   0.23438,   0.05469,   0.00781,  -0.07031,  -0.00781,  -0.05469,  -0.02344,   0.00000,  -0.00781,   0.03906,   0.00000,  -0.00000,  -0.02344,   0.03125,  -0.00781,  -0.04688,  -0.01562,   0.00000
  -0.03906,  -0.00781,   0.00000,  -0.00781,  -0.01562,   0.00781,  -0.02344,  -0.01562,   0.03125,  -0.03125,  -0.01562,   0.14062,   0.03906,   0.02344,  -0.04688,  -0.02344,   0.39062,  -0.07812,  -0.01562,   0.01562,  -0.03125,   0.03906,   0.00000,  -0.00781,  -0.04688,  -0.01562,   0.04688,  -0.02344,   0.03125,  -0.04688,  -0.01562,   0.00781,   0.00781,   0.00000,   0.00781,  -0.02344,  -0.01562,   0.00000,  -0.01562,   0.01562,   0.01562,   0.01562,   0.03125,   0.01562,  -0.02344,  -0.01562,  -0.03125,  -0.49219,   0.00781,  -0.11719,  -0.02344,  -0.04688,   0.02344,   0.00781,  -0.00781,  -0.04688,   0.01562,   0.03906,  -0.00781,   0.01562,  -0.00781,  -0.02344,  -0.01562,   0.01562
   0.01562,  -0.01562,   0.00781,  -0.03125,  -0.00781,   0.00781,  -0.01562,  -0.46094,   0.04688,   0.00781,  -0.03125,  -0.10156,  -0.01562,  -0.02344,   0.12500,   0.00781,  -0.28125,  -0.00781,   0.04688,  -0.03906,   0.01562,  -0.02344,  -0.02344,  -0.03125,  -0.00781,  -0.02344,  -0.03906,   0.02344,   0.02344,  -0.05469,   0.02344,   0.03906,  -0.01562,   0.01562,  -0.00781,  -0.03125,   0.17188,   0.01562,  -0.00781,   0.00781,  -0.00781,  -0.06250,   0.03125,  -0.00781,  -0.04688,   0.01562,   0.00000,   0.25000,  -0.03125,   0.03125,  -0.02344,   0.03125,  -0.03125,  -0.01562,   0.01562,   0.53906,   0.00781,   0.01562,  -0.00000,  -0.04688,   0.00781,  -0.04688,   0.02344,   0.03125
   0.01562,  -0.03125,   0.00781,  -0.03125,  -0.01562,  -0.00000,  -0.01562,  -0.57031,   0.01562,   0.00781,   0.01562,  -0.07812,   0.00000,  -0.03125,   0.12500,  -0.02344,  -0.04688,  -0.09375,   0.01562,   0.03906,   0.01562,  -0.01562,  -0.00781,  -0.00000,   0.03125,  -0.04688,  -0.01562,  -0.00781,   0.03125,  -0.07812,  -0.01562,   0.03906,  -0.00000,   0.07031,  -0.00000,  -0.03125,   0.21094,   0.04688,   0.02344,   0.00781,  -0.01562,  -0.02344,   0.03906,   0.04688,  -0.02344,   0.01562,  -0.00000,   0.00000,  -0.03125,  -0.05469,   0.00781,   0.07031,  -0.03125,  -0.00000,   0.01562,   0.64062,  -0.01562,   0.00000,  -0.03125,  -0.02344,  -0.00781,  -0.03125,  -0.01562,   0.02344
   0.01562,   0.03125,   0.02344,  -0.04688,  -0.01562,  -0.00781,  -0.01562,  -0.45312,  -0.02344,  -0.00781,   0.01562,   0.09375,   0.00781,  -0.02344,   0.01562,  -0.00000,   0.20312,   0.01562,   0.00781,  -0.00000,  -0.07812,  -0.00781,  -0.00000,   0.00781,   0.05469,  -0.01562,   0.02344,  -0.01562,   0.07812,  -0.06250,  -0.00000,   0.01562,   0.02344,   0.01562,  -0.02344,  -0.04688,   0.14844,   0.02344,  -0.02344,  -0.00781,  -0.00781,  -0.00781,   0.01562,   0.01562,  -0.02344,   0.00781,  -0.16406,  -0.35156,   0.00000,  -0.07031,  -0.01562,   0.03125,   0.01562,   0.00781,   0.00000,   0.35938,   0.00000,   0.00000,  -0.00781,  -0.02344,  -0.03125,  -0.00000,  -0.01562,   0.01562
   0.03125,  -0.00781,  -0.03125,  -0.06250,  -0.03125,   0.01562,   0.02344,  -0.00000,  -0.02344,   0.00781,  -0.03125,  -0.09375,   0.02344,  -0.03125,  -0.05469,  -0.01562,  -0.00781,  -0.03906,   0.00781,   0.03125,   0.03906,   0.01562,  -0.01562,   0.00781,   0.03906,   0.01562,   0.00781,   0.02344,   0.00781,   0.03125,  -0.03125,  -0.03125,  -0.00781,   0.00781,  -0.03906,   0.07812,   0.00781,  -0.03906,   0.04688,   0.05469,   0.05469,  -0.00781,   0.02344,   0.03906,   0.02344,   0.03125,  -0.03125,  -0.00781,   0.04688,   0.00781,  -0.02344,  -0.11719,   0.01562,   0.06250,  -0.03125,  -0.00781,   0.08594,  -0.03906,  -0.02344,   0.05469,   0.01562,  -0.14062,   0.01562,   0.02344
   0.00781,   0.03906,  -0.00781,  -0.09375,   0.05469,   0.03125,   0.03125,  -0.02344,   0.03125,  -0.02344,   0.00781,  -0.00781,   0.03125,  -0.02344,  -0.04688,   0.01562,   0.03125,  -0.05469,  -0.02344,   0.01562,   0.06250,  -0.02344,   0.03125,   0.05469,  -0.00000,   0.01562,   0.00781,  -0.05469,   0.00781,   0.00000,  -0.00781,  -0.00781,   0.03125,   0.03125,  -0.01562,   0.05469,   0.00000,  -0.04688,  -0.02344,   0.02344,   0.06250,   0.02344,   0.02344,  -0.00000,   0.04688,  -0.02344,  -0.00781,   0.00000,   0.03906,  -0.01562,  -0.04688,  -0.11719,   0.02344,   0.04688,  -0.03125,  -0.04688,   0.07031,   0.02344,  -0.03125,   0.02344,   0.01562,  -0.14844,  -0.00781,  -0.01562
  -0.02344,   0.05469,  -0.00000,  -0.00781,   0.00781,   0.00000,  -0.00000,  -0.03906,  -0.00781,  -0.03906,  -0.03906,   0.03906,   0.07031,   0.01562,  -0.03906,  -0.03125,   0.04688,  -0.02344,  -0.00781,   0.07812,   0.01562,   0.04688,   0.04688,   0.03906,  -0.02344,   0.04688,   0.03125,  -0.06250,   0.00000,  -0.01562,   0.00781,  -0.02344,   0.02344,   0.05469,   0.03125,  -0.00781,   0.02344,  -0.06250,  -0.01562,  -0.05469,   0.00781,   0.00781,  -0.00781,  -0.02344,   0.04688,  -0.06250,   0.02344,   0.01562,   0.07031,   0.03125,  -0.05469,  -0.08594,  -0.00781,   0.03125,   0.06250,  -0.02344,  -0.03125,   0.03906,   0.02344,   0.03125,   0.00781,  -0.12500,  -0.03125,  -0.02344
  -0.01562,   0.06250,  -0.03125,   0.02344,  -0.03906,  -0.03125,  -0.09375,   0.03125,  -0.00781,   0.02344,  -0.05469,  -0.09375,  -0.03125,  -0.13281,   0.01562,   0.02344,  -0.00781,  -0.04688,   0.01562,   0.04688,   0.01562,  -0.02344,  -0.07031,  -0.01562,   0.04688,  -0.04688,   0.01562,   0.02344,  -0.01562,   0.00000,   0.00781,  -0.04688,   0.03125,   0.10156,   0.00781,   0.02344,  -0.03125,  -0.05469,  -0.01562,  -0.07812,   0.04688,   0.04688,   0.00000,   0.03125,  -0.07031,   0.02344,  -0.02344,   0.02344,   0.01562,  -0.04688,   0.00000,  -0.06250,  -0.07031,  -0.00781,  -0.05469,   0.04688,   0.16406,  -0.01562,   0.03125,  -0.04688,  -0.03125,  -0.14844,  -0.03125,  -0.00000
  -0.02344,  -0.01562,  -0.00000,   0.07812,   0.00781,   0.02344,  -0.10156,   0.03906,   0.04688,   0.03125,  -0.00781,  -0.04688,   0.06250,  -0.00781,   0.01562,   0.00781,   0.00000,  -0.03906,  -0.03125,  -0.01562,   0.01562,   0.01562,  -0.00781,  -0.06250,   0.04688,  -0.06250,   0.00781,  -0.04688,  -0.03125,   0.00781,   0.02344,  -0.07031,   0.03906,   0.10938,  -0.01562,  -0.02344,  -0.03906,  -0.06250,  -0.07031,  -0.07812,   0.07031,   0.00781,   0.00781,   0.05469,  -0.05469,  -0.03125,  -0.00781,   0.03125,   0.03906,  -0.00781,   0.00000,  -0.03125,  -0.03906,  -0.00000,  -0.00781,   0.00781,   0.00781,   0.00000,  -0.00781,   0.03906,  -0.07812,  -0.14844,  -0.05469,  -0.07812
  -0.07031,   0.03125,   0.01562,   0.07031,   0.03906,  -0.03125,  -0.00000,   0.03125,   0.03906,   0.00000,  -0.03906,  -0.03125,   0.00000,   0.08594,  -0.00781,   0.01562,   0.03125,  -0.00781,  -0.02344,   0.01562,   0.01562,  -0.02344,   0.00000,   0.03125,   0.01562,  -0.04688,   0.04688,  -0.03906,  -0.03906,  -0.03125,   0.04688,   0.02344,  -0.00781,   0.11719,  -0.01562,   0.00000,  -0.01562,  -0.07031,  -0.04688,  -0.02344,   0.04688,  -0.00000,   0.01562,   0.03125,  -0.00000,  -0.07812,  -0.00000,  -0.00781,   0.03906,   0.04688,   0.00781,  -0.14062,  -0.03125,   0.10156,   0.00000,   0.03906,  -0.03906,  -0.00781,   0.00000,  -0.00781,  -0.07031,  -0.12500,   0.04688,  -0.10938
   0.01562,   0.02344,   0.06250,  -0.00000,  -0.02344,  -0.00000,   0.01562,   0.03125,   0.01562,   0.03125,  -0.00781,   0.01562,   0.00781,  -0.08594,   0.03125,  -0.03906,   0.03906,   0.00000,   0.04688,  -0.04688,   0.01562,   0.05469,   0.00781,  -0.03906,  -0.01562,   0.08594,   0.00000,   0.00781,  -0.00781,  -0.03906,   0.02344,  -0.06250,   0.02344,   0.06250,   0.01562,  -0.08594,  -0.00781,  -0.06250,   0.03125,  -0.03125,  -0.00000,   0.04688,  -0.01562,  -0.01562,  -0.03125,   0.00781,   0.00000,   0.04688,   0.03125,  -0.01562,   0.03125,   0.05469,   0.02344,   0.01562,   0.01562,   0.04688,   0.10938,   0.03125,   0.04688,   0.02344,  -0.00781,  -0.12500,  -0.03906,  -0.00781
   0.07812,  -0.02344,   0.06250,   0.10938,   0.01562,   0.04688,   0.05469,   0.03125,   0.00781,   0.00000,   0.06250,   0.04688,   0.07812,   0.07031,   0.01562,  -0.04688,   0.05469,   0.00781,   0.03906,   0.02344,  -0.00781,   0.01562,   0.05469,  -0.01562,  -0.02344,   0.05469,   0.04688,   0.02344,  -0.01562,   0.00781,   0.02344,  -0.02344,   0.03906,   0.02344,   0.00781,  -0.11719,  -0.01562,  -0.05469,   0.03125,   0.03125,   0.01562,   0.04688,  -0.00781,  -0.01562,  -0.00000,  -0.00000,   0.00000,   0.06250,   0.02344,   0.03906,   0.02344,   0.07812,   0.02344,   0.03125,   0.05469,   0.03125,  -0.02344,   0.03125,  -0.00000,   0.10938,  -0.05469,  -0.11719,  -0.03906,  -0.00781
   0.03906,  -0.00000,   0.01562,   0.07812,  -0.03906,   0.00000,   0.04688,   0.04688,  -0.00781,   0.01562,  -0.00000,  -0.07031,  -0.02344,   0.15625,   0.01562,  -0.01562,   0.03906,   0.00781,   0.04688,   0.03125,   0.02344,  -0.00781,   0.01562,   0.03906,  -0.01562,   0.03906,   0.08594,   0.03125,  -0.00781,   0.02344,   0.05469,  -0.07812,   0.01562,   0.07812,  -0.03906,  -0.06250,  -0.00781,  -0.06250,   0.01562,   0.03906,   0.04688,   0.02344,   0.00000,   0.03125,   0.00000,  -0.01562,  -0.00000,   0.00781,   0.03125,   0.02344,   0.01562,  -0.05469,  -0.00781,   0.04688,   0.01562,   0.02344,  -0.09375,   0.03906,  -0.02344,   0.06250,   0.00000,  -0.09375,   0.04688,   0.01562
  -0.00781,   0.02344,  -0.03125,  -0.01562,   0.01562,   0.06250,   0.02344,   0.05469,   0.03125,  -0.00781,  -0.06250,  -0.04688,  -0.05469,   0.06250,   0.03125,   0.03906,  -0.01562,  -0.01562,   0.01562,   0.00781,   0.01562,   0.10938,   0.00000,   0.04688,   0.05469,   0.05469,   0.03125,  -0.03906,  -0.01562,   0.01562,   0.01562,  -0.00781,   0.01562,   0.04688,   0.00781,  -0.03906,   0.00781,  -0.00781,  -0.01562,  -0.03906,   0.06250,  -0.00781,  -0.00781,   0.04688,   0.03906,  -0.04688,  -0.01562,   0.01562,   0.00000,   0.01562,   0.00781,  -0.04688,  -0.02344,   0.02344,   0.02344,   0.00000,   0.07031,  -0.05469,   0.05469,  -0.06250,  -0.00781,   0.00781,   0.07031,   0.00000
   0.00781,  -0.05469,   0.06250,   0.01562,  -0.29688,   0.06250,   0.05469,   0.08594,  -0.04688,   0.00000,  -0.05469,  -0.00781,   0.01562,   0.02344,   0.03906,   0.06250,  -0.01562,   0.00781,   0.05469,   0.01562,  -0.03125,   0.08594,  -0.00781,  -0.05469,   0.02344,  -0.14844,  -0.00781,  -0.05469,  -0.03906,  -0.01562,   0.05469,  -0.07812,   0.00781,   0.03906,   0.03906,  -0.07031,   0.04688,   0.00781,   0.14062,  -0.02344,   0.00000,  -0.00000,   0.07812,   0.00781,   0.06250,   0.01562,  -0.00000,  -0.03906,   0.13281,   0.01562,   0.07031,   0.06250,  -0.03906,   0.01562,   0.00781,   0.03906,  -0.06250,   0.06250,  -0.07812,   0.03125,   0.05469,   0.08594,  -0.03125,  -0.04688
  -0.02344,   0.04688,  -0.00000,  -0.03125,  -0.07812,  -0.00781,  -0.02344,   0.00781,   0.02344,   0.06250,  -0.01562,  -0.01562,   0.02344,   0.00781,   0.00781,   0.04688,   0.03906,   0.00000,  -0.07031,  -0.02344,   0.01562,   0.03906,   0.03125,   0.02344,   0.02344,   0.00000,   0.01562,   0.03906,  -0.02344,   0.00000,  -0.00000,  -0.02344,  -0.04688,   0.02344,   0.03125,  -0.00781,   0.07812,   0.02344,   0.23438,   0.03906,   0.03906,  -0.04688,   0.03125,   0.02344,   0.07031,   0.07031,   0.00000,   0.00781,   0.03906,   0.07031,   0.04688,  -0.00781,   0.03125,  -0.01562,   0.02344,   0.00000,  -0.00781,  -0.03125,  -0.02344,   0.01562,   0.01562,   0.09375,   0.03906,  -0.00781
  -0.05469,  -0.04688,  -0.00781,  -0.00781,  -0.02344,   0.00000,  -0.02344,  -0.03125,   0.04688,  -0.01562,  -0.07031,   0.00781,  -0.02344,  -0.03125,   0.06250,   0.01562,   0.04688,   0.02344,  -0.00781,   0.03125,  -0.01562,   0.11719,  -0.03125,   0.02344,   0.01562,   0.03906,   0.05469,  -0.01562,  -0.00781,   0.06250,  -0.03125,  -0.05469,   0.07812,   0.01562,  -0.05469,   0.03906,  -0.01562,   0.01562,   0.00781,   0.01562,   0.05469,  -0.03906,  -0.03125,   0.01562,  -0.09375,  -0.00781,  -0.00781,   0.02344,  -0.03125,   0.08594,  -0.03906,  -0.05469,  -0.01562,  -0.02344,  -0.00781,   0.00781,   0.07031,  -0.00000,   0.02344,  -0.05469,  -0.02344,  -0.03125,  -0.03125,   0.00781
  -0.03125,   0.03906,   0.03906,  -0.00781,   0.10938,   0.09375,   0.04688,   0.01562,   0.00781,  -0.04688,   0.02344,  -0.00781,   0.07812,  -0.04688,   0.05469,  -0.03906,   0.01562,   0.02344,   0.05469,  -0.02344,  -0.03125,   0.03906,  -0.00781,  -0.05469,  -0.03125,  -0.21094,   0.00000,  -0.07812,  -0.00781,   0.01562,   0.06250,   0.01562,   0.03125,   0.03125,   0.03125,   0.07031,  -0.03125,  -0.00781,  -0.11719,  -0.02344,  -0.07812,   0.02344,   0.00781,  -0.02344,  -0.01562,  -0.00781,   0.00781,   0.02344,   0.10938,   0.01562,  -0.00781,   0.07812,  -0.02344,   0.00781,  -0.17188,   0.01562,  -0.06250,  -0.07031,  -0.12500,  -0.03125,  -0.03906,   0.00781,  -0.03125,  -0.07031
  -0.00781,   0.04688,  -0.02344,  -0.02344,  -0.03125,  -0.00781,   0.00000,  -0.01562,   0.03906,  -0.01562,   0.09375,   0.07812,   0.05469,   0.06250,  -0.00781,  -0.02344,   0.06250,   0.00781,  -0.03906,  -0.09375,  -0.00000,  -0.03125,  -0.00781,   0.02344,  -0.01562,   0.02344,   0.04688,  -0.03906,   0.00781,   0.05469,  -0.05469,  -0.04688,  -0.00781,   0.00000,   0.03906,   0.07812,  -0.01562,   0.03125,  -0.12500,  -0.13281,  -0.00000,  -0.10156,   0.00000,  -0.02344,   0.05469,   0.02344,  -0.00781,   0.01562,  -0.05469,   0.06250,  -0.02344,  -0.13281,   0.00000,  -0.10156,   0.05469,  -0.01562,  -0.00781,  -0.06250,   0.03906,  -0.00781,  -0.03125,  -0.01562,  -0.04688,  -0.01562
   0.01562,   0.05469,  -0.04688,   0.00000,  -0.01562,  -0.06250,  -0.00781,  -0.00781,  -0.00000,   0.03125,   0.06250,   0.00781,  -0.00781,   0.03906,   0.00781,   0.03906,   0.00781,   0.03125,   0.00781,   0.02344,  -0.02344,   0.00781,  -0.04688,  -0.02344,   0.05469,  -0.04688,   0.04688,  -0.01562,  -0.00781,   0.02344,  -0.03125,  -0.04688,   0.04688,   0.02344,  -0.03125,  -0.03125,  -0.03125,  -0.02344,  -0.05469,  -0.03125,   0.10938,   0.07031,  -0.01562,  -0.03125,  -0.12500,  -0.03125,  -0.03125,   0.03125,  -0.01562,   0.00781,  -0.03906,   0.01562,   0.00781,  -0.01562,   0.01562,   0.01562,  -0.00781,  -0.03906,   0.07031,   0.03125,  -0.00000,   0.00781,  -0.00781,  -0.01562
   0.10156,   0.03906,   0.00000,   0.01562,   0.21094,  -0.02344,   0.03906,  -0.00781,  -0.07031,   0.01562,   0.00000,  -0.01562,   0.00781,   0.03125,   0.04688,  -0.08594,  -0.07812,   0.01562,  -0.00000,   0.00781,  -0.00781,  -0.02344,   0.02344,  -0.01562,   0.03906,   0.14062,   0.00781,  -0.07812,   0.00781,  -0.07031,   0.04688,   0.10156,   0.00000,   0.07031,   0.09375,  -0.14844,   0.02344,  -0.01562,   0.08594,  -0.03125,  -0.05469,   0.06250,  -0.03125,   0.01562,   0.00781,  -0.16406,   0.00000,   0.00781,  -0.02344,  -0.09375,   0.02344,   0.06250,   0.01562,   0.03125,  -0.01562,   0.04688,  -0.09375,   0.00781,  -0.07812,   0.03906,  -0.03125,  -0.00000,   0.00781,  -0.03125
   0.03906,   0.01562,  -0.02344,   0.02344,   0.06250,  -0.02344,  -0.00000,  -0.00781,   0.00781,   0.01562,   0.07031,   0.01562,  -0.04688,  -0.03906,  -0.03125,   0.02344,  -0.00781,  -0.00781,  -0.03125,  -0.03906,   0.02344,  -0.12500,   0.00000,   0.04688,   0.03125,   0.02344,  -0.00781,   0.04688,  -0.00000,  -0.01562,  -0.07031,  -0.00781,  -0.04688,   0.02344,   0.03125,  -0.04688,   0.00000,   0.01562,  -0.05469,  -0.04688,  -0.00781,  -0.00781,   0.02344,  -0.04688,   0.03125,  -0.07812,   0.00781,  -0.03125,   0.00781,  -0.00781,   0.02344,  -0.01562,   0.03125,   0.01562,   0.07812,   0.03125,   0.03125,   0.03906,   0.03125,  -0.01562,  -0.00781,  -0.04688,   0.03906,  -0.04688
   0.03906,  -0.03125,   0.03906,   0.02344,  -0.01562,   0.02344,   0.00781,   0.01562,  -0.10938,   0.03906,   0.00000,  -0.00781,   0.01562,  -0.02344,  -0.01562,   0.01562,  -0.04688,  -0.08594,   0.03906,  -0.00781,   0.04688,   0.00781,  -0.00781,  -0.00781,   0.01562,  -0.00000,   0.03125,   0.00781,  -0.00781,  -0.14062,  -0.02344,   0.00781,  -0.03906,  -0.05469,   0.03125,  -0.00781,   0.05469,  -0.05469,  -0.02344,  -0.04688,   0.00781,   0.01562,  -0.03906,  -0.00781,   0.00781,  -0.01562,  -0.00781,   0.00000,   0.01562,  -0.01562,  -0.10938,   0.06250,   0.01562,  -0.00781,  -0.00781,  -0.01562,  -0.03906,  -0.02344,   0.03906,   0.04688,   0.02344,   0.00000,   0.02344,   0.03125
   0.04688,   0.00000,   0.00000,   0.02344,  -0.00781,   0.01562,  -0.02344,  -0.01562,  -0.07031,  -0.08594,   0.02344,  -0.10938,   0.00000,   0.00781,  -0.03906,   0.01562,  -0.14844,  -0.03125,   0.01562,  -0.00781,   0.04688,  -0.03906,  -0.01562,   0.00781,  -0.01562,  -0.00781,  -0.01562,   0.03906,  -0.03125,  -0.16406,  -0.01562,  -0.02344,  -0.02344,  -0.01562,   0.02344,   0.03125,  -0.03125,  -0.01562,  -0.00781,  -0.00781,  -0.00000,   0.00781,  -0.01562,  -0.02344,   0.01562,   0.03125,  -0.01562,  -0.02344,   0.01562,  -0.04688,  -0.03125,  -0.00781,  -0.05469,   0.00781,  -0.01562,  -0.03125,  -0.03125,   0.00000,   0.00781,   0.00781,   0.02344,   0.03125,  -0.01562,   0.00781
   0.03906,   0.00781,  -0.05469,   0.02344,   0.02344,  -0.00781,   0.00781,  -0.00000,  -0.02344,  -0.06250,   0.01562,   0.03125,   0.02344,   0.04688,  -0.03906,  -0.00781,  -0.09375,   0.03125,  -0.02344,  -0.02344,  -0.00781,   0.01562,  -0.02344,   0.01562,  -0.03906,   0.02344,  -0.01562,  -0.01562,  -0.01562,  -0.10938,   0.07812,   0.03125,   0.00000,   0.01562,  -0.00781,   0.03906,   0.04688,   0.02344,  -0.00000,   0.00781,   0.02344,  -0.00781,  -0.01562,  -0.00781,   0.00000,  -0.04688,   0.02344,   0.10156,   0.00000,   0.03125,   0.03125,   0.00781,  -0.06250,   0.00000,  -0.03125,   0.00781,   0.00781,  -0.00000,   0.00781,   0.02344,   0.02344,   0.07812,   0.00000,  -0.00000
   0.02344,   0.00781,   0.00000,   0.00000,  -0.03906,   0.00000,   0.01562,   0.03906,  -0.06250,   0.01562,   0.02344,  -0.03906,  -0.01562,  -0.03906,  -0.02344,   0.00781,  -0.07031,  -0.10938,   0.03906,   0.01562,   0.05469,   0.01562,   0.00781,  -0.03125,   0.04688,  -0.01562,   0.03906,   0.03125,  -0.02344,  -0.13281,  -0.03125,  -0.00781,  -0.04688,  -0.01562,   0.00000,  -0.00000,   0.03125,   0.00000,  -0.03125,  -0.03125,  -0.01562,   0.00781,  -0.03125,  -0.03906,  -0.02344,   0.01562,  -0.01562,   0.00000,   0.01562,  -0.00781,   0.00781,   0.02344,   0.02344,  -0.01562,  -0.00000,  -0.01562,   0.00000,  -0.00781,   0.03906,  -0.00781,   0.02344,  -0.01562,   0.03125,   0.01562
   0.01562,   0.03125,  -0.00781,   0.00781,   0.00781,   0.00781,  -0.01562,   0.00000,  -0.00000,  -0.09375,   0.03906,  -0.16406,  -0.03906,  -0.03125,  -0.06250,   0.01562,  -0.16406,  -0.03906,  -0.00000,   0.00781,   0.07812,  -0.01562,   0.00000,   0.02344,   0.02344,  -0.01562,  -0.00000,  -0.00000,  -0.04688,  -0.19531,  -0.04688,  -0.03906,  -0.00781,   0.03906,   0.02344,  -0.01562,  -0.03125,  -0.03906,  -0.05469,  -0.00000,  -0.03125,   0.01562,  -0.01562,  -0.02344,   0.02344,   0.05469,  -0.02344,  -0.08594,   0.01562,  -0.03906,  -0.01562,  -0.06250,  -0.04688,   0.00781,  -0.01562,  -0.04688,   0.01562,  -0.02344,   0.00781,  -0.02344,   0.02344,  -0.03906,   0.01562,   0.00000
   0.02344,  -0.00000,  -0.03125,   0.00781,   0.02344,  -0.01562,   0.02344,  -0.00781,  -0.03906,  -0.01562,  -0.00781,   0.06250,   0.00781,   0.03125,  -0.02344,   0.00781,  -0.03906,   0.05469,  -0.03906,  -0.02344,  -0.01562,  -0.00781,  -0.01562,   0.01562,  -0.01562,   0.00781,  -0.03125,  -0.07812,   0.00000,  -0.10938,   0.09375,   0.00781,   0.00781,   0.06250,  -0.00000,   0.01562,   0.03906,   0.00781,  -0.02344,  -0.00000,  -0.00781,  -0.00781,  -0.02344,   0.00000,   0.03125,  -0.02344,   0.01562,   0.03906,  -0.00000,   0.01562,   0.00781,  -0.02344,  -0.03125,  -0.02344,  -0.01562,  -0.01562,   0.00781,   0.00781,   0.00781,  -0.00000,   0.03125,   0.00781,  -0.00781,  -0.02344
  -0.01562,   0.00781,  -0.01562,   0.00781,  -0.03906,   0.02344,  -0.00781,   0.01562,  -0.08594,  -0.05469,   0.02344,  -0.00781,   0.00000,   0.00000,   0.03906,   0.01562,  -0.06250,  -0.04688,   0.04688,   0.01562,   0.02344,   0.02344,   0.01562,  -0.03906,   0.01562,   0.00000,  -0.01562,   0.00781,   0.00781,  -0.10938,   0.02344,   0.00781,   0.00781,   0.00000,  -0.02344,  -0.01562,   0.05469,  -0.00781,  -0.01562,  -0.02344,  -0.03125,  -0.03906,  -0.03125,  -0.00781,  -0.03906,  -0.01562,  -0.03906,   0.08594,  -0.04688,  -0.03906,   0.00781,   0.03906,  -0.00000,  -0.02344,   0.01562,   0.03906,   0.00781,  -0.00781,  -0.00000,  -0.00000,   0.01562,   0.00000,  -0.03125,   0.00781
  -0.00781,  -0.00000,  -0.00781,   0.00000,  -0.00000,   0.03125,  -0.05469,   0.02344,  -0.12500,  -0.04688,   0.02344,  -0.10156,  -0.00781,  -0.03906,   0.04688,  -0.00781,  -0.10938,  -0.00000,   0.02344,   0.01562,   0.09375,   0.01562,   0.02344,   0.02344,   0.03906,   0.01562,  -0.03125,  -0.02344,  -0.01562,  -0.10938,   0.00781,  -0.03125,   0.00781,   0.06250,  -0.01562,  -0.03906,   0.02344,  -0.05469,   0.01562,   0.03125,  -0.03125,  -0.02344,  -0.02344,   0.02344,   0.01562,   0.02344,  -0.00781,  -0.01562,  -0.03125,  -0.07031,  -0.00000,   0.00781,  -0.03125,   0.00781,   0.01562,   0.00781,   0.01562,   0.00781,  -0.01562,   0.00781,   0.03906,  -0.03906,   0.01562,  -0.01562
  -0.00781,  -0.00000,  -0.02344,   0.02344,   0.00000,  -0.00781,  -0.01562,  -0.01562,  -0.07031,   0.05469,  -0.01562,   0.06250,   0.00000,   0.00781,   0.07812,  -0.00781,  -0.02344,   0.05469,  -0.00781,   0.00781,   0.00781,  -0.02344,  -0.02344,  -0.00781,  -0.00781,  -0.00000,  -0.04688,  -0.04688,   0.00781,  -0.12500,   0.08594,   0.01562,  -0.01562,   0.03906,  -0.01562,  -0.03125,  -0.03125,  -0.01562,   0.02344,   0.02344,  -0.01562,  -0.01562,  -0.03906,   0.00000,   0.00781,  -0.00781,   0.01562,   0.05469,  -0.03906,   0.03125,   0.03125,   0.02344,  -0.01562,  -0.03125,   0.00781,   0.02344,  -0.01562,   0.04688,   0.00781,  -0.00000,   0.03125,  -0.00781,  -0.01562,  -0.02344
  -0.03906,   0.01562,   0.05469,  -0.04688,   0.00781,  -0.03906,   0.00000,   0.00781,  -0.01562,  -0.00781,   0.07031,   0.01562,  -0.02344,   0.05469,   0.00000,   0.01562,   0.00781,   0.00781,   0.02344,   0.00781,   0.01562,   0.03906,  -0.03125,   0.00781,  -0.03125,   0.03906,  -0.00781,   0.07031,  -0.01562,  -0.02344,  -0.01562,  -0.00781,  -0.03125,   0.00781,  -0.03906,  -0.01562,  -0.03125,   0.02344,  -0.03906,   0.02344,   0.04688,  -0.01562,   0.00781,   0.00781,   0.01562,  -0.03125,   0.00000,   0.00781,  -0.01562,   0.03906,   0.00000,  -0.02344,  -0.02344,  -0.00000,   0.01562,   0.01562,  -0.08594,   0.00781,  -0.05469,  -0.06250,  -0.03125,   0.03125,  -0.02344,   0.00000
  -0.08594,  -0.02344,   0.01562,  -0.07031,   0.09375,  -0.02344,  -0.02344,   0.02344,   0.01562,  -0.00781,  -0.02344,  -0.03125,  -0.03906,   0.05469,   0.03125,  -0.01562,  -0.00781,  -0.01562,   0.03125,  -0.00781,   0.01562,   0.03906,  -0.05469,   0.05469,   0.00781,   0.11719,  -0.02344,   0.03125,   0.01562,   0.00000,  -0.01562,   0.03125,   0.02344,   0.03125,  -0.06250,   0.00781,  -0.00781,   0.03125,   0.01562,   0.00781,  -0.00781,  -0.07812,  -0.01562,  -0.01562,   0.03906,   0.01562,  -0.00781,   0.00781,  -0.03906,   0.00781,   0.00781,  -0.00781,   0.00000,   0.00781,  -0.07031,   0.03125,  -0.02344,   0.02344,  -0.02344,  -0.07812,  -0.06250,   0.07031,  -0.04688,  -0.03906
  -0.06250,  -0.03125,  -0.00781,  -0.03125,   0.00000,  -0.03906,  -0.02344,   0.01562,   0.03125,  -0.00781,  -0.08594,   0.03906,  -0.03906,  -0.10938,  -0.03125,   0.00781,   0.02344,  -0.01562,   0.04688,  -0.00000,   0.02344,  -0.10938,  -0.06250,  -0.01562,   0.00781,   0.00000,  -0.02344,   0.03125,   0.01562,   0.04688,  -0.04688,  -0.00000,  -0.01562,   0.01562,  -0.04688,  -0.01562,   0.02344,   0.00781,  -0.03125,   0.00781,  -0.01562,  -0.07031,   0.01562,  -0.00781,   0.00000,   0.06250,  -0.00781,   0.00781,   0.03125,  -0.02344,  -0.00000,   0.03906,   0.01562,  -0.01562,  -0.03906,  -0.00781,   0.04688,  -0.01562,   0.07031,   0.03125,  -0.03125,   0.06250,  -0.03125,  -0.03906
  -0.02344,   0.01562,   0.01562,  -0.00781,   0.00781,  -0.09375,   0.02344,  -0.04688,   0.03906,  -0.02344,   0.05469,  -0.02344,   0.06250,   0.10156,   0.00781,   0.01562,   0.01562,   0.03906,  -0.04688,  -0.01562,   0.00000,   0.09375,  -0.04688,   0.03125,  -0.03125,   0.04688,   0.06250,   0.00000,  -0.00000,   0.00781,   0.03906,  -0.05469,  -0.00000,  -0.02344,  -0.00781,  -0.00781,   0.00000,  -0.03125,  -0.01562,   0.06250,   0.08594,   0.03906,   0.02344,   0.00781,  -0.03906,  -0.13281,   0.00000,   0.03125,  -0.03906,   0.04688,  -0.00781,  -0.15625,   0.07812,   0.03906,   0.01562,  -0.03125,  -0.14062,  -0.03906,  -0.04688,   0.03125,  -0.03906,  -0.06250,   0.00000,   0.07812
   0.03125,   0.00781,  -0.04688,  -0.04688,   0.00781,  -0.31250,  -0.04688,   0.02344,  -0.03125,   0.00000,  -0.08594,  -0.04688,   0.00000,  -0.00781,  -0.00781,   0.07812,  -0.03125,   0.02344,  -0.01562,   0.05469,   0.02344,   0.04688,  -0.12500,   0.07812,  -0.00781,   0.10938,  -0.01562,  -0.01562,   0.01562,  -0.00000,   0.05469,  -0.15625,  -0.02344,   0.01562,  -0.02344,  -0.00000,   0.01562,  -0.05469,   0.12500,  -0.07812,   0.18750,   0.01562,   0.02344,  -0.00781,  -0.08594,  -0.06250,  -0.00781,  -0.02344,  -0.07031,  -0.00000,   0.02344,  -0.36719,   0.06250,   0.03906,  -0.00781,   0.00781,   0.06250,   0.02344,   0.02344,  -0.08594,  -0.00000,  -0.10938,   0.00781,   0.03906
   0.01562,  -0.04688,   0.00781,  -0.03125,  -0.00781,  -0.10938,  -0.04688,   0.02344,  -0.01562,   0.00781,  -0.10938,   0.06250,   0.02344,  -0.26562,  -0.02344,   0.05469,   0.03125,   0.01562,   0.01562,   0.01562,   0.00000,  -0.16406,  -0.07031,  -0.06250,  -0.01562,   0.00781,  -0.11719,   0.03906,   0.00781,   0.00781,   0.04688,  -0.05469,  -0.05469,  -0.00781,  -0.02344,  -0.07031,   0.01562,  -0.06250,   0.11719,  -0.07812,   0.14844,   0.05469,   0.01562,   0.00781,  -0.09375,   0.05469,   0.00781,   0.02344,  -0.01562,   0.01562,   0.01562,  -0.09375,  -0.02344,   0.03906,  -0.01562,   0.00000,   0.12500,   0.04688,   0.11719,  -0.03906,  -0.03125,  -0.12500,  -0.00000,  -0.01562
  -0.04688,  -0.00000,   0.03125,   0.03906,   0.00000,   0.02344,  -0.00781,  -0.02344,  -0.00781,  -0.00000,   0.05469,   0.01562,  -0.03906,   0.01562,   0.01562,  -0.01562,   0.03125,   0.00781,  -0.00781,   0.03906,   0.00781,   0.08594,  -0.03125,  -0.00781,  -0.00781,  -0.04688,   0.00000,  -0.01562,  -0.00000,   0.03125,  -0.01562,  -0.14062,  -0.01562,  -0.05469,  -0.01562,  -0.00781,  -0.00000,  -0.02344,  -0.00781,   0.06250,   0.03906,   0.03125,   0.00781,   0.03906,  -0.03906,  -0.01562,   0.02344,   0.02344,   0.02344,   0.06250,  -0.03125,  -0.06250,  -0.02344,  -0.02344,  -0.03125,  -0.00781,  -0.03125,  -0.01562,  -0.02344,   0.01562,  -0.08594,  -0.00781,  -0.01562,  -0.03125
  -0.11719,  -0.03906,   0.02344,  -0.00781,  -0.03906,   0.00781,   0.00781,   0.02344,  -0.01562,  -0.00000,   0.03125,   0.04688,  -0.03906,  -0.05469,  -0.00000,   0.03906,   0.00000,  -0.00000,   0.03906,   0.01562,  -0.00781,  -0.04688,  -0.04688,  -0.00000,  -0.03125,  -0.06250,  -0.00781,  -0.00781,   0.01562,   0.01562,  -0.00000,  -0.36719,   0.00000,  -0.06250,  -0.04688,   0.02344,   0.00781,  -0.00000,   0.04688,  -0.01562,   0.04688,  -0.00000,   0.02344,  -0.01562,  -0.05469,  -0.00000,   0.01562,  -0.05469,   0.02344,   0.02344,   0.02344,  -0.04688,  -0.01562,  -0.03906,  -0.04688,   0.00781,  -0.03125,   0.01562,  -0.03906,  -0.01562,  -0.07031,   0.01562,  -0.07031,  -0.09375
  -0.08594,  -0.03906,   0.00000,   0.01562,  -0.00781,   0.00000,  -0.00000,   0.01562,  -0.00781,  -0.02344,  -0.03125,   0.11719,  -0.07031,  -0.08594,   0.00781,  -0.00781,   0.03906,  -0.00781,   0.03125,  -0.00000,   0.01562,  -0.12500,  -0.01562,  -0.08594,   0.01562,  -0.05469,   0.02344,   0.02344,  -0.00781,   0.05469,  -0.00781,  -0.11719,   0.00781,  -0.06250,  -0.05469,  -0.04688,   0.01562,  -0.01562,   0.03906,  -0.06250,   0.01562,   0.03125,   0.00781,  -0.00000,   0.00781,   0.04688,   0.02344,  -0.01562,   0.04688,   0.05469,  -0.00781,   0.03906,  -0.00781,  -0.04688,  -0.01562,  -0.00781,   0.03125,   0.00781,   0.00781,   0.00781,  -0.09375,  -0.01562,  -0.00781,  -0.10156
  -0.01562,   0.01562,  -0.05469,  -0.01562,   0.04688,  -0.05469,   0.07812,   0.03125,  -0.01562,  -0.02344,   0.09375,   0.03906,   0.03125,   0.00781,  -0.00000,   0.00781,   0.02344,   0.02344,   0.05469,  -0.00000,  -0.04688,  -0.08594,  -0.06250,  -0.00000,   0.02344,   0.01562,  -0.03125,   0.04688,  -0.00000,  -0.05469,   0.03125,   0.03125,  -0.00781,   0.03906,  -0.05469,  -0.08594,   0.00781,  -0.01562,  -0.03906,  -0.00781,   0.03125,  -0.03125,  -0.07031,  -0.03125,   0.03125,   0.05469,  -0.00781,  -0.00000,   0.00000,  -0.02344,   0.01562,   0.00781,  -0.05469,   0.03125,  -0.03125,   0.00781,   0.10938,   0.06250,  -0.05469,  -0.00781,   0.06250,  -0.01562,  -0.07812,  -0.00000
  -0.03906,   0.00781,   0.07812,  -0.00781,  -0.06250,   0.10156,  -0.00781,   0.06250,  -0.01562,   0.06250,   0.07031,   0.02344,   0.01562,  -0.00781,   0.07812,  -0.04688,  -0.03125,   0.01562,  -0.03906,  -0.09375,  -0.03906,  -0.04688,   0.09375,  -0.08594,   0.01562,   0.00781,   0.00000,   0.07812,   0.04688,   0.02344,  -0.03125,   0.02344,   0.00781,  -0.02344,   0.03906,  -0.07031,   0.00781,   0.00781,  -0.03906,  -0.04688,   0.00781,   0.01562,  -0.00781,   0.06250,  -0.00000,  -0.02344,   0.00781,  -0.00781,   0.03125,   0.07812,   0.01562,   0.08594,  -0.05469,   0.03906,   0.05469,   0.06250,  -0.09375,   0.07812,   0.05469,   0.04688,  -0.19531,   0.07031,  -0.12500,   0.00781
  -0.09375,   0.01562,   0.03906,   0.01562,   0.06250,  -0.11719,   0.00781,   0.02344,   0.04688,   0.04688,   0.03906,  -0.08594,  -0.02344,   0.06250,  -0.00781,   0.05469,  -0.03125,   0.00000,  -0.00781,  -0.03906,  -0.00781,   0.07031,   0.03125,  -0.05469,   0.09375,  -0.03125,   0.10156,   0.05469,   0.01562,   0.03125,  -0.09375,  -0.06250,   0.02344,   0.08594,  -0.03906,   0.03125,  -0.00781,  -0.00781,   0.02344,   0.10938,   0.03125,   0.04688,   0.06250,   0.01562,  -0.05469,   0.06250,   0.02344,   0.00781,   0.03906,   0.09375,   0.03125,  -0.06250,   0.03906,   0.00781,  -0.09375,  -0.00000,  -0.03125,   0.00000,   0.00781,  -0.00781,   0.06250,   0.03906,  -0.01562,  -0.01562
  -0.01562,  -0.00781,   0.01562,  -0.10156,  -0.04688,  -0.03125,   0.04688,   0.00000,   0.03906,  -0.01562,   0.10938,   0.07031,   0.03906,  -0.02344,   0.06250,   0.02344,  -0.03125,  -0.00781,  -0.06250,  -0.08594,   0.02344,  -0.06250,  -0.02344,  -0.07031,  -0.01562,   0.03906,   0.06250,   0.01562,   0.00781,  -0.00781,   0.04688,   0.00781,   0.03125,  -0.00781,  -0.07812,   0.00781,   0.03906,   0.00000,   0.04688,   0.03125,  -0.00781,  -0.07812,   0.01562,   0.05469,   0.03906,   0.07812,  -0.02344,  -0.07031,  -0.01562,  -0.02344,  -0.00781,   0.09375,   0.06250,  -0.07031,  -0.01562,   0.00781,  -0.16406,   0.00781,  -0.07031,   0.02344,   0.06250,   0.05469,   0.03906,  -0.02344
   0.12500,  -0.07031,  -0.12500,  -0.08594,   0.06250,  -0.11719,  -0.08594,  -0.01562,   0.02344,   0.03906,  -0.04688,  -0.04688,  -0.06250,  -0.00781,   0.00781,   0.00000,   0.08594,  -0.00781,   0.03906,   0.13281,   0.03125,   0.10938,  -0.06250,   0.14844,   0.00781,  -0.20312,  -0.03125,  -0.00781,  -0.00000,   0.03906,   0.01562,   0.00781,  -0.30469,  -0.03125,   0.12500,   0.13281,  -0.06250,  -0.02344,  -0.07031,  -0.10156,   0.01562,  -0.00781,   0.03125,   0.00781,  -0.03906,   0.07031,  -0.01562,   0.01562,   0.21875,  -0.01562,  -0.01562,  -0.17969,   0.07031,  -0.10938,   0.06250,   0.00000,   0.06250,  -0.25781,   0.09375,   0.02344,   0.12500,  -0.08594,   0.17969,   0.16406
   0.07812,  -0.03125,   0.02344,   0.04688,  -0.03906,   0.03906,  -0.00000,   0.01562,   0.03906,   0.00781,   0.06250,   0.02344,  -0.01562,  -0.05469,   0.09375,  -0.13281,   0.09375,   0.00781,   0.11719,  -0.07812,  -0.00781,   0.01562,   0.00781,   0.00781,  -0.03906,   0.05469,  -0.03125,  -0.16406,   0.02344,  -0.03906,  -0.07031,   0.07031,   0.04688,  -0.07031,   0.07031,   0.00781,  -0.02344,   0.05469,  -0.03125,  -0.06250,  -0.08594,  -0.11719,   0.03906,   0.00781,   0.03906,   0.00781,   0.03906,   0.03125,  -0.03906,  -0.07031,   0.00000,   0.03906,  -0.10156,   0.08594,   0.07812,   0.02344,   0.05469,  -0.05469,  -0.05469,   0.00781,   0.00781,  -0.03125,  -0.09375,  -0.07812
   0.02344,   0.03125,  -0.03125,   0.10156,  -0.03906,   0.13281,  -0.07031,  -0.01562,  -0.03125,  -0.01562,  -0.06250,   0.05469,   0.02344,  -0.00000,  -0.03906,  -0.02344,  -0.00000,   0.02344,  -0.03906,   0.00781,   0.01562,   0.03125,   0.03906,   0.00781,  -0.06250,   0.05469,  -0.02344,   0.01562,   0.01562,  -0.03125,  -0.05469,   0.04688,  -0.04688,   0.00781,   0.00781,  -0.03125,   0.01562,   0.04688,   0.00781,  -0.01562,  -0.00781,  -0.09375,   0.04688,   0.03125,   0.02344,   0.02344,   0.00781,  -0.01562,  -0.03125,  -0.06250,  -0.01562,   0.00781,  -0.05469,  -0.02344,  -0.00781,  -0.07031,   0.02344,   0.03906,  -0.03125,  -0.02344,  -0.12500,   0.10156,  -0.11719,  -0.01562
  -0.13281,  -0.01562,   0.09375,  -0.02344,   0.05469,  -0.02344,   0.10938,  -0.03906,  -0.04688,  -0.02344,   0.16406,  -0.01562,   0.00781,  -0.05469,  -0.00781,   0.18750,  -0.07812,   0.01562,   0.06250,  -0.00000,   0.05469,  -0.09375,  -0.06250,  -0.03125,  -0.00781,   0.14844,   0.03125,   0.00781,   0.00781,  -0.03906,   0.03125,  -0.23438,   0.02344,   0.03125,  -0.10938,  -0.07812,   0.01562,  -0.01562,   0.10156,   0.12500,   0.01562,   0.08594,  -0.00000,  -0.07031,  -0.21875,   0.07031,  -0.00781,  -0.00781,   0.00000,   0.06250,   0.02344,  -0.06250,  -0.02344,   0.05469,  -0.11719,  -0.03125,   0.07812,  -0.01562,   0.05469,   0.07031,   0.08594,   0.03906,   0.25781,   0.03906
   0.14844,   0.03906,   0.00000,  -0.10938,  -0.00781,   0.05469,  -0.01562,  -0.01562,   0.01562,  -0.00781,  -0.03906,  -0.03906,  -0.02344,   0.07031,   0.03125,   0.07031,  -0.02344,   0.03906,  -0.03906,   0.01562,   0.09375,  -0.01562,   0.00781,  -0.03125,   0.01562,  -0.01562,   0.06250,  -0.00000,  -0.00000,   0.08594,   0.08594,   0.05469,  -0.06250,   0.00000,  -0.02344,  -0.12500,   0.02344,  -0.02344,  -0.00000,  -0.00781,   0.04688,   0.03906,  -0.03125,  -0.03125,   0.05469,   0.04688,   0.01562,   0.01562,   0.00781,  -0.01562,   0.02344,  -0.05469,   0.00781,   0.01562,   0.03906,  -0.00000,  -0.05469,   0.03125,   0.01562,   0.03125,  -0.03125,  -0.02344,   0.06250,  -0.02344
  -0.01562,  -0.00781,  -0.00781,  -0.00000,   0.02344,   0.02344,  -0.00781,   0.01562,   0.03906,   0.01562,  -0.00781,  -0.01562,   0.03125,  -0.06250,   0.03906,   0.00781,  -0.04688,  -0.00781,   0.03125,   0.03906,  -0.01562,   0.08594,   0.05469,   0.01562,  -0.00781,   0.07031,   0.00781,  -0.02344,  -0.01562,  -0.00000,   0.00781,  -0.05469,  -0.01562,   0.07031,   0.03906,   0.02344,   0.02344,   0.00781,   0.00781,  -0.00781,   0.01562,   0.00781,  -0.03125,   0.03906,  -0.03906,   0.00000,   0.03906,  -0.01562,  -0.05469,  -0.03125,   0.05469,   0.03906,  -0.00781,  -0.03125,   0.00781,   0.01562,   0.01562,  -0.03125,   0.05469,   0.00781,  -0.00781,  -0.07031,   0.04688,   0.02344
  -0.07031,  -0.03906,   0.00781,   0.09375,   0.00781,   0.00000,   0.01562,   0.02344,   0.01562,   0.04688,   0.02344,  -0.00781,   0.00781,  -0.09375,  -0.00781,   0.03906,  -0.00781,   0.03125,   0.04688,   0.01562,  -0.03906,   0.03906,   0.05469,   0.04688,   0.02344,   0.03906,   0.02344,  -0.02344,  -0.01562,   0.03906,  -0.03125,   0.02344,   0.07812,   0.00781,  -0.03125,  -0.01562,   0.02344,   0.00000,  -0.00781,   0.01562,  -0.03906,  -0.00000,   0.02344,   0.00000,  -0.01562,   0.05469,   0.03906,  -0.01562,  -0.00781,   0.03125,   0.03906,  -0.00781,   0.03125,   0.03125,   0.00781,   0.03125,   0.04688,   0.02344,  -0.03125,  -0.00000,  -0.01562,  -0.01562,  -0.02344,  -0.00781
  -0.05469,   0.07031,  -0.03125,   0.01562,  -0.04688,   0.06250,   0.04688,   0.00000,  -0.00000,   0.03125,   0.00000,  -0.07031,   0.04688,   0.15625,  -0.02344,   0.05469,   0.03125,   0.03906,   0.02344,   0.02344,  -0.03125,   0.00781,   0.00781,   0.05469,   0.05469,  -0.05469,   0.05469,   0.00000,   0.00000,   0.03906,   0.00000,  -0.02344,  -0.02344,   0.07031,  -0.00000,  -0.05469,  -0.02344,  -0.03125,   0.01562,  -0.05469,   0.02344,   0.00781,  -0.00781,  -0.02344,  -0.00781,  -0.01562,   0.03125,   0.02344,   0.01562,   0.05469,   0.06250,  -0.03906,  -0.01562,  -0.02344,   0.00000,  -0.03125,  -0.05469,   0.01562,  -0.00781,   0.04688,  -0.02344,  -0.01562,   0.04688,   0.03125
   0.01562,   0.03125,  -0.03906,  -0.00781,  -0.04688,  -0.04688,   0.06250,  -0.01562,  -0.01562,  -0.04688,  -0.02344,   0.01562,   0.06250,   0.14062,  -0.03125,   0.02344,   0.00000,  -0.02344,   0.00781,   0.04688,   0.03125,   0.05469,  -0.01562,  -0.00000,  -0.03906,   0.07031,   0.03125,  -0.03125,  -0.00000,  -0.03125,   0.02344,  -0.03906,   0.03125,  -0.03125,  -0.07031,  -0.03906,   0.02344,  -0.00000,   0.07031,  -0.02344,   0.08594,   0.01562,  -0.00000,  -0.01562,   0.02344,   0.00000,  -0.02344,   0.02344,   0.04688,  -0.07031,  -0.03125,  -0.00781,  -0.00781,   0.02344,   0.04688,  -0.00781,  -0.03906,   0.03125,   0.01562,  -0.05469,   0.07812,  -0.01562,   0.07812,   0.08594
   0.00781,   0.13281,  -0.07031,  -0.06250,   0.02344,   0.02344,  -0.00781,   0.06250,  -0.00781,   0.02344,  -0.10938,   0.03906,  -0.06250,  -0.08594,   0.06250,   0.01562,  -0.02344,  -0.00781,  -0.01562,   0.04688,   0.04688,  -0.06250,  -0.01562,   0.05469,  -0.03125,   0.03125,  -0.03906,  -0.07031,   0.02344,  -0.01562,   0.02344,  -0.04688,  -0.05469,  -0.07031,  -0.07031,   0.03125,  -0.01562,   0.02344,   0.01562,  -0.02344,   0.13281,   0.00000,   0.02344,  -0.03125,   0.05469,   0.07812,  -0.01562,   0.01562,   0.03125,  -0.07812,   0.02344,  -0.13281,   0.03125,   0.05469,  -0.07812,   0.04688,   0.17969,   0.03125,   0.03125,  -0.24219,   0.00000,  -0.10938,   0.00781,  -0.00000
  -0.06250,   0.02344,  -0.00781,  -0.01562,  -0.01562,   0.02344,  -0.03125,   0.00000,   0.01562,   0.02344,  -0.02344,   0.05469,   0.05469,  -0.14844,   0.03125,  -0.00781,   0.00000,   0.01562,   0.00781,   0.01562,  -0.00781,   0.06250,  -0.01562,  -0.03906,  -0.00781,  -0.03125,   0.02344,  -0.03125,   0.03125,   0.03125,   0.03125,   0.00781,   0.02344,   0.03125,   0.03906,  -0.02344,   0.01562,   0.04688,  -0.00781,  -0.01562,   0.13281,   0.00781,  -0.00781,  -0.07031,   0.00781,  -0.01562,   0.02344,   0.03125,   0.00781,   0.04688,  -0.00781,   0.09375,  -0.01562,  -0.02344,  -0.00781,  -0.03125,   0.00781,   0.02344,   0.06250,   0.01562,   0.01562,   0.00781,  -0.04688,   0.00781
  -0.02344,   0.03906,   0.05469,   0.00781,  -0.00781,   0.07031,   0.00781,   0.00781,   0.04688,   0.00781,   0.06250,   0.02344,  -0.00000,  -0.01562,  -0.00000,   0.04688,  -0.04688,   0.03125,   0.03906,   0.01562,  -0.00000,   0.00781,  -0.03125,  -0.00781,  -0.02344,  -0.00000,   0.01562,  -0.07031,   0.02344,  -0.00781,   0.00781,  -0.05469,   0.07812,  -0.01562,  -0.05469,   0.00781,   0.02344,   0.00000,  -0.02344,  -0.02344,   0.03906,  -0.06250,  -0.00000,   0.01562,  -0.01562,  -0.02344,  -0.01562,  -0.02344,   0.07031,  -0.07031,  -0.00000,   0.03125,   0.01562,  -0.00000,   0.00781,  -0.01562,  -0.04688,   0.05469,   0.01562,   0.07031,   0.03125,   0.07812,  -0.02344,   0.03125
   0.10156,   0.07031,   0.00000,  -0.05469,   0.01562,   0.00781,  -0.09375,   0.00000,  -0.00781,   0.01562,   0.07031,  -0.04688,  -0.00781,   0.00781,   0.02344,   0.07812,  -0.04688,   0.03906,   0.03906,   0.04688,   0.01562,   0.03125,  -0.02344,   0.05469,  -0.02344,   0.00000,  -0.00781,  -0.03906,   0.00781,   0.03906,   0.02344,  -0.18750,  -0.00781,   0.07031,  -0.01562,   0.02344,   0.00781,  -0.02344,   0.02344,  -0.03906,   0.14062,   0.03906,  -0.01562,   0.07812,  -0.13281,   0.01562,  -0.02344,  -0.03125,   0.00000,   0.00781,   0.04688,   0.00000,   0.00000,  -0.07031,   0.05469,  -0.01562,   0.03906,   0.01562,   0.00781,  -0.03125,  -0.04688,   0.01562,   0.06250,   0.07812
  -0.06250,  -0.03125,   0.04688,   0.04688,   0.01562,   0.02344,   0.01562,  -0.01562,  -0.02344,  -0.01562,   0.09375,  -0.03125,   0.04688,   0.07031,  -0.00781,  -0.00781,   0.05469,   0.06250,   0.00000,  -0.03125,  -0.01562,  -0.04688,   0.04688,   0.00000,  -0.02344,   0.02344,   0.03125,  -0.03125,   0.03125,   0.02344,   0.02344,   0.14062,   0.06250,   0.00781,  -0.03125,  -0.01562,   0.02344,   0.04688,  -0.00781,   0.01562,   0.03125,  -0.00000,  -0.00000,  -0.05469,   0.03125,   0.03125,   0.00781,   0.04688,   0.03906,   0.05469,  -0.02344,   0.03125,   0.00781,   0.03125,   0.01562,  -0.04688,   0.00781,   0.03125,  -0.12500,   0.01562,  -0.00781,   0.00781,   0.00781,  -0.04688
  -0.01562,   0.01562,   0.05469,   0.00000,   0.00000,  -0.02344,  -0.01562,   0.01562,  -0.01562,   0.01562,  -0.00781,  -0.03125,   0.00000,   0.04688,   0.03125,   0.03906,  -0.07031,   0.04688,  -0.00781,  -0.01562,   0.00781,  -0.00781,   0.03125,   0.00000,  -0.01562,  -0.04688,   0.05469,  -0.00781,   0.01562,  -0.02344,  -0.02344,  -0.00781,  -0.02344,  -0.03906,  -0.00000,  -0.00781,  -0.04688,  -0.03125,  -0.00000,   0.03906,  -0.00000,  -0.01562,   0.03906,   0.01562,  -0.00000,  -0.01562,   0.04688,   0.00781,  -0.03906,  -0.03125,   0.02344,   0.03125,  -0.02344,   0.02344,   0.03125,  -0.05469,  -0.03906,   0.00781,  -0.03906,   0.00781,   0.00781,  -0.00781,  -0.02344,  -0.02344
  -0.03125,  -0.01562,   0.10156,   0.02344,   0.00000,  -0.03125,  -0.00781,   0.02344,   0.00000,   0.02344,   0.00000,  -0.00781,  -0.01562,   0.00781,   0.00000,   0.03125,   0.00000,   0.03906,   0.00781,  -0.00781,   0.01562,  -0.03125,   0.03906,   0.01562,  -0.00781,  -0.02344,   0.10938,  -0.01562,   0.00781,  -0.00781,  -0.01562,   0.02344,   0.01562,  -0.02344,   0.01562,  -0.01562,  -0.07031,  -0.03125,   0.01562,   0.00781,   0.00781,  -0.00781,   0.03906,  -0.00781,   0.01562,  -0.00781,   0.04688,  -0.01562,  -0.01562,  -0.01562,   0.03906,   0.00781,  -0.03906,   0.04688,  -0.00781,  -0.03906,  -0.00000,  -0.01562,  -0.01562,  -0.01562,   0.03125,   0.00000,  -0.00781,  -0.01562
  -0.03125,  -0.02344,   0.03906,   0.02344,   0.00781,   0.00781,  -0.00000,   0.02344,  -0.01562,   0.01562,   0.03125,  -0.01562,   0.00000,  -0.00781,  -0.00781,   0.01562,   0.02344,   0.03125,  -0.00781,  -0.00000,   0.03125,   0.00781,   0.02344,  -0.03125,   0.00781,  -0.01562,   0.11719,  -0.02344,   0.01562,  -0.00781,  -0.01562,   0.00000,   0.01562,  -0.03125,   0.01562,  -0.05469,  -0.05469,  -0.00781,   0.03125,  -0.01562,  -0.00781,   0.00781,   0.00781,  -0.02344,   0.01562,   0.00781,   0.03125,  -0.05469,  -0.00781,  -0.03125,   0.02344,   0.03125,  -0.03125,   0.03125,  -0.00000,  -0.00781,   0.01562,  -0.03125,   0.02344,  -0.02344,  -0.02344,   0.01562,   0.00000,   0.03906
  -0.00781,  -0.00781,   0.05469,  -0.01562,  -0.00781,  -0.03125,   0.03906,   0.00000,  -0.02344,   0.00781,  -0.03125,  -0.06250,  -0.03125,   0.05469,  -0.03906,   0.05469,  -0.07031,   0.03906,  -0.00000,  -0.01562,   0.00781,  -0.03906,   0.00781,   0.00000,  -0.03125,   0.00781,   0.03125,   0.04688,   0.02344,  -0.02344,  -0.00000,  -0.05469,  -0.01562,   0.02344,  -0.02344,   0.01562,   0.02344,  -0.02344,   0.01562,   0.02344,   0.01562,   0.01562,   0.05469,   0.07812,   0.01562,  -0.00000,   0.03906,   0.03125,  -0.04688,  -0.03125,   0.03125,  -0.07031,  -0.01562,   0.02344,  -0.02344,   0.01562,   0.00000,   0.01562,  -0.03906,  -0.01562,   0.02344,  -0.03125,  -0.01562,  -0.01562
  -0.00781,  -0.02344,   0.07031,  -0.01562,   0.03125,  -0.02344,   0.03125,   0.03125,   0.01562,   0.07812,  -0.02344,   0.00781,  -0.04688,  -0.03125,  -0.01562,   0.07031,   0.00000,   0.03125,  -0.00781,  -0.02344,   0.01562,  -0.07031,   0.07031,   0.02344,  -0.01562,   0.02344,   0.13281,  -0.01562,   0.01562,  -0.00781,   0.00781,  -0.06250,   0.03906,   0.04688,  -0.01562,   0.04688,   0.00781,   0.00781,   0.01562,   0.01562,   0.03125,   0.03906,   0.08594,   0.12500,   0.04688,   0.01562,   0.03906,   0.03125,  -0.00781,  -0.03125,   0.04688,  -0.14062,  -0.01562,   0.04688,  -0.03906,   0.03906,   0.01562,  -0.01562,  -0.00781,  -0.04688,   0.02344,  -0.03125,  -0.01562,  -0.03125
  -0.01562,  -0.01562,  -0.01562,  -0.00000,   0.02344,   0.00781,   0.00781,   0.02344,  -0.01562,   0.04688,  -0.00000,   0.00781,  -0.00781,  -0.08594,  -0.01562,   0.05469,   0.02344,   0.02344,  -0.02344,  -0.00000,   0.03906,   0.02344,   0.03125,  -0.02344,   0.00000,   0.00781,   0.16406,  -0.03125,   0.03125,  -0.03906,  -0.00781,  -0.03125,   0.01562,  -0.00000,   0.00781,  -0.03125,   0.00781,   0.01562,   0.03906,  -0.01562,   0.00781,   0.03906,   0.03125,   0.04688,   0.01562,   0.00000,   0.03125,  -0.06250,  -0.00781,  -0.06250,   0.01562,  -0.04688,  -0.00781,   0.01562,   0.02344,   0.03125,   0.03125,  -0.05469,   0.03906,  -0.03906,  -0.00781,  -0.01562,  -0.00781,   0.01562
   0.00781,  -0.03906,   0.04688,  -0.02344,  -0.01562,  -0.04688,   0.02344,  -0.07031,  -0.00781,  -0.06250,  -0.00781,  -0.07031,  -0.01562,   0.03125,  -0.01562,   0.02344,  -0.06250,   0.06250,   0.00000,   0.00781,   0.02344,   0.05469,  -0.00781,   0.02344,  -0.03906,   0.02344,   0.02344,   0.05469,   0.03125,   0.00000,  -0.00781,  -0.07812,   0.01562,   0.01562,  -0.00781,  -0.00781,   0.00000,  -0.02344,  -0.00000,  -0.03125,   0.03906,  -0.00781,  -0.00781,   0.10938,  -0.01562,  -0.03125,   0.04688,   0.03906,  -0.03906,  -0.01562,  -0.02344,   0.02344,  -0.00000,   0.00781,  -0.00000,   0.01562,   0.03906,  -0.01562,   0.00000,   0.02344,   0.00781,  -0.07812,   0.01562,   0.01562
   0.03906,  -0.02344,   0.00781,  -0.02344,  -0.00781,  -0.00781,  -0.02344,  -0.06250,  -0.01562,  -0.00781,   0.01562,  -0.02344,  -0.00781,   0.00000,   0.00000,   0.02344,  -0.02344,   0.05469,   0.00781,   0.01562,   0.02344,   0.06250,   0.03125,  -0.00000,  -0.03125,   0.02344,   0.05469,   0.01562,   0.01562,  -0.00000,   0.00781,  -0.11719,   0.04688,   0.01562,  -0.00000,   0.03125,  -0.01562,   0.00000,   0.02344,  -0.02344,   0.06250,   0.01562,   0.00781,   0.17969,  -0.03125,   0.00000,   0.03906,   0.03125,  -0.02344,  -0.01562,  -0.06250,  -0.00781,  -0.01562,   0.00000,   0.03125,   0.03125,   0.01562,  -0.01562,   0.00781,   0.00781,   0.00000,  -0.10938,  -0.02344,   0.01562
   0.00781,   0.00781,  -0.04688,  -0.02344,  -0.01562,  -0.00000,  -0.00781,  -0.04688,  -0.02344,  -0.01562,   0.03906,  -0.01562,  -0.00000,  -0.00781,  -0.03125,   0.04688,   0.01562,   0.03906,  -0.02344,   0.03125,   0.04688,   0.07031,  -0.01562,  -0.02344,  -0.01562,  -0.03125,   0.05469,   0.01562,   0.03125,  -0.02344,  -0.00781,  -0.03125,   0.00781,  -0.00781,   0.01562,  -0.03125,   0.00781,   0.00000,   0.03125,  -0.00781,   0.03906,   0.03125,  -0.01562,   0.07031,  -0.04688,   0.00000,   0.03906,  -0.03125,  -0.01562,  -0.02344,  -0.04688,   0.07031,  -0.01562,   0.00781,   0.05469,  -0.00000,   0.04688,  -0.03906,   0.00781,   0.00000,   0.00781,  -0.07812,  -0.03906,   0.01562
   0.00781,  -0.00781,  -0.07031,   0.05469,  -0.01562,  -0.03125,  -0.02344,   0.04688,   0.00000,   0.04688,   0.03906,  -0.03125,  -0.00000,  -0.00781,   0.03125,  -0.01562,   0.03906,  -0.00000,   0.00781,  -0.02344,  -0.01562,   0.03125,   0.05469,  -0.01562,   0.01562,   0.07031,   0.07812,  -0.01562,  -0.02344,  -0.00781,  -0.01562,   0.02344,  -0.08594,  -0.04688,   0.02344,  -0.05469,  -0.00781,  -0.03906,   0.03906,  -0.09375,  -0.00781,  -0.03125,  -0.07812,   0.00781,  -0.00000,   0.04688,  -0.01562,  -0.00781,   0.05469,  -0.02344,  -0.00000,   0.00000,   0.01562,  -0.07812,  -0.01562,   0.03906,   0.00000,   0.00781,   0.02344,   0.04688,  -0.03125,   0.03906,  -0.00000,  -0.00000
   0.03125,  -0.01562,   0.04688,   0.01562,  -0.05469,   0.00000,  -0.00781,   0.00781,  -0.07031,   0.05469,   0.01562,  -0.07812,   0.03125,  -0.03906,  -0.03125,   0.01562,  -0.10938,  -0.03125,  -0.03906,  -0.00781,  -0.00781,  -0.04688,   0.03125,  -0.01562,  -0.00781,  -0.07812,   0.02344,  -0.03125,  -0.02344,  -0.13281,  -0.04688,  -0.02344,  -0.02344,  -0.01562,   0.04688,  -0.01562,   0.02344,   0.03125,  -0.02344,  -0.08594,  -0.03906,  -0.00000,  -0.03906,   0.04688,  -0.02344,  -0.04688,  -0.01562,  -0.08594,   0.02344,  -0.18750,   0.02344,   0.02344,  -0.16406,  -0.01562,   0.05469,   0.05469,  -0.02344,  -0.03125,   0.03906,   0.10156,   0.00000,   0.07812,  -0.01562,   0.04688
  -0.01562,  -0.05469,   0.00781,   0.00000,   0.02344,   0.03906,   0.07812,   0.07812,  -0.02344,   0.08594,  -0.00000,  -0.03125,   0.03906,   0.00781,  -0.00781,  -0.00781,  -0.03906,  -0.00781,  -0.03125,  -0.09375,  -0.02344,   0.00781,  -0.02344,   0.00781,  -0.03125,   0.03906,  -0.02344,  -0.03125,   0.00781,  -0.01562,  -0.02344,  -0.02344,   0.00781,  -0.00781,  -0.00781,  -0.00781,   0.07031,   0.06250,   0.03906,  -0.00000,  -0.00781,  -0.04688,  -0.03906,   0.11719,  -0.04688,  -0.07031,   0.02344,  -0.06250,  -0.00781,  -0.08594,   0.04688,  -0.03906,  -0.21875,  -0.02344,   0.00000,   0.03125,  -0.04688,  -0.00781,   0.03125,  -0.01562,   0.03906,   0.09375,  -0.03906,   0.01562
   0.03125,   0.07031,  -0.07031,   0.01562,  -0.00781,  -0.07812,  -0.00781,   0.00000,  -0.01562,  -0.00781,   0.03125,  -0.05469,  -0.00000,  -0.05469,  -0.02344,   0.01562,  -0.00000,   0.00781,   0.00000,   0.03906,  -0.00000,   0.03125,   0.02344,   0.01562,  -0.00781,   0.03125,   0.03906,   0.03906,   0.00000,  -0.00000,  -0.00000,   0.00000,  -0.14062,  -0.00000,  -0.01562,   0.00781,  -0.03125,  -0.06250,   0.06250,  -0.03125,   0.02344,   0.00000,  -0.01562,   0.00000,  -0.02344,   0.02344,  -0.02344,  -0.00000,   0.04688,   0.01562,   0.00000,  -0.06250,  -0.00000,  -0.11719,  -0.00000,  -0.00781,   0.07812,  -0.00781,   0.03125,  -0.04688,   0.01562,  -0.04688,   0.01562,  -0.00781
   0.00781,  -0.01562,   0.04688,   0.02344,   0.00781,   0.03906,  -0.04688,  -0.00000,  -0.10156,  -0.03125,   0.01562,  -0.12500,   0.02344,  -0.07812,  -0.07812,   0.00000,  -0.17188,  -0.03125,  -0.05469,   0.05469,   0.00781,  -0.03906,   0.02344,  -0.03125,   0.03125,  -0.08594,  -0.05469,  -0.02344,  -0.00781,  -0.18750,  -0.08594,   0.02344,  -0.08594,  -0.03125,   0.03125,  -0.04688,  -0.04688,  -0.04688,  -0.07812,  -0.10156,  -0.08594,   0.02344,  -0.03906,   0.00781,  -0.03125,  -0.00781,  -0.02344,  -0.12500,   0.03125,  -0.21094,  -0.00781,   0.00781,  -0.21094,  -0.02344,   0.07812,   0.00000,   0.01562,  -0.07031,   0.00781,   0.03906,  -0.03125,  -0.03125,   0.00781,   0.03125
  -0.00781,  -0.04688,   0.07031,   0.00781,   0.00000,   0.05469,   0.07031,  -0.00000,  -0.03125,  -0.01562,  -0.04688,   0.03125,   0.05469,   0.07812,  -0.00000,   0.00781,  -0.08594,  -0.00000,  -0.07031,  -0.16406,  -0.01562,  -0.04688,   0.00000,  -0.00000,  -0.03125,   0.04688,  -0.10156,  -0.14844,   0.01562,  -0.07812,  -0.03125,  -0.00781,   0.02344,  -0.01562,  -0.00781,   0.01562,   0.03125,   0.03125,  -0.04688,  -0.00000,  -0.07812,  -0.06250,  -0.00781,   0.07812,  -0.01562,  -0.02344,   0.01562,  -0.02344,   0.01562,  -0.10156,   0.04688,  -0.00781,  -0.25781,   0.07031,  -0.02344,   0.00000,  -0.07031,  -0.00000,  -0.08594,   0.07031,   0.03125,   0.02344,   0.00781,  -0.04688
  -0.03125,   0.03125,  -0.03906,   0.00000,   0.01562,  -0.05469,  -0.00000,  -0.00000,  -0.00781,   0.00781,   0.04688,  -0.05469,   0.00781,   0.02344,  -0.00781,   0.07812,   0.02344,   0.00000,  -0.02344,  -0.14844,  -0.03125,   0.03125,  -0.01562,   0.03906,  -0.03906,  -0.02344,   0.04688,  -0.02344,   0.00000,   0.06250,  -0.00781,   0.03125,   0.03125,  -0.05469,  -0.00781,   0.02344,   0.02344,  -0.01562,  -0.00781,   0.03906,  -0.03906,  -0.00000,   0.03125,  -0.03125,   0.01562,  -0.00000,  -0.02344,   0.03906,  -0.00781,   0.03906,   0.02344,  -0.03125,  -0.00781,  -0.07031,   0.00000,   0.00781,  -0.00000,  -0.00781,  -0.03906,  -0.00781,   0.06250,  -0.01562,  -0.01562,  -0.00000
  -0.01562,  -0.00000,  -0.03906,  -0.00781,   0.01562,  -0.06250,  -0.01562,   0.03906,  -0.05469,  -0.01562,   0.05469,  -0.07031,  -0.01562,  -0.05469,  -0.06250,  -0.01562,  -0.09375,  -0.02344,  -0.06250,   0.00781,   0.00781,  -0.00781,  -0.06250,   0.02344,   0.03125,  -0.02344,   0.03906,  -0.00000,  -0.02344,  -0.07031,  -0.03125,   0.07031,   0.05469,   0.03125,   0.00781,  -0.00781,   0.03906,  -0.03125,   0.00000,   0.00781,  -0.08594,   0.03125,  -0.00000,  -0.03906,   0.00781,  -0.00000,  -0.03125,  -0.07812,  -0.00781,   0.00000,   0.03906,  -0.00781,  -0.10938,  -0.03125,   0.07031,   0.01562,  -0.00781,  -0.04688,  -0.07031,  -0.01562,   0.06250,  -0.00781,   0.00781,   0.03125
   0.05469,   0.00781,  -0.03906,  -0.00781,  -0.02344,  -0.02344,   0.05469,   0.05469,  -0.00781,   0.03125,   0.02344,   0.01562,  -0.00781,   0.00000,   0.00781,  -0.03125,  -0.01562,  -0.00000,  -0.04688,  -0.06250,   0.00781,   0.02344,  -0.03125,  -0.02344,   0.01562,  -0.04688,   0.04688,  -0.03906,  -0.03125,   0.00781,  -0.03906,   0.05469,   0.03125,   0.02344,   0.00781,   0.04688,   0.10156,   0.01562,  -0.05469,   0.03125,  -0.00781,  -0.03906,   0.00781,   0.01562,   0.02344,  -0.00781,  -0.00000,  -0.00000,  -0.00781,   0.04688,   0.07812,   0.03125,  -0.16406,  -0.03906,   0.04688,   0.03906,  -0.04688,  -0.02344,  -0.08594,  -0.01562,   0.03906,   0.03125,   0.00781,  -0.01562
  -0.07031,   0.03125,   0.00781,  -0.00781,   0.00781,   0.00781,  -0.06250,  -0.00000,   0.05469,  -0.04688,   0.07031,  -0.05469,   0.00781,   0.03125,  -0.10156,   0.03906,   0.01562,  -0.03906,   0.00000,  -0.03125,   0.04688,   0.01562,   0.00000,  -0.00781,   0.05469,   0.03906,   0.00781,   0.01562,   0.04688,  -0.01562,  -0.00000,  -0.02344,   0.01562,  -0.04688,  -0.02344,  -0.04688,   0.05469,  -0.07812,  -0.03125,  -0.03906,   0.01562,  -0.00000,  -0.02344,  -0.02344,   0.02344,   0.00000,  -0.00781,   0.02344,  -0.02344,   0.07812,  -0.03906,   0.01562,   0.02344,  -0.00781,  -0.03125,  -0.04688,  -0.01562,  -0.01562,   0.03906,  -0.02344,   0.01562,   0.04688,  -0.00781,  -0.00781
  -0.03906,  -0.00781,  -0.00781,   0.00000,   0.05469,   0.02344,  -0.05469,   0.00781,   0.00781,  -0.14844,  -0.03906,  -0.02344,   0.00781,   0.02344,  -0.10938,   0.03906,   0.07031,  -0.01562,   0.01562,  -0.00000,  -0.02344,   0.00781,  -0.01562,   0.02344,   0.00781,   0.03906,  -0.02344,  -0.01562,   0.03125,  -0.00000,   0.00000,  -0.01562,   0.00781,  -0.00000,  -0.00781,   0.10156,   0.01562,  -0.08594,   0.03125,  -0.01562,  -0.01562,  -0.03906,  -0.07031,  -0.00781,   0.05469,   0.00781,   0.00000,  -0.02344,  -0.02344,  -0.02344,   0.03125,  -0.07812,  -0.00781,   0.00000,  -0.06250,  -0.04688,  -0.02344,  -0.03906,  -0.03906,   0.01562,  -0.01562,   0.07812,  -0.00781,  -0.00781
   0.00000,   0.03906,   0.00000,  -0.03125,   0.03906,  -0.01562,   0.03906,  -0.06250,  -0.07812,  -0.21094,   0.00781,   0.05469,  -0.00781,   0.03125,  -0.12500,   0.03125,   0.00781,   0.00000,   0.01562,   0.02344,  -0.06250,   0.03125,  -0.03906,   0.03125,  -0.05469,  -0.00781,   0.01562,   0.00781,   0.04688,   0.07031,   0.02344,  -0.00000,  -0.00000,  -0.01562,  -0.02344,  -0.03125,  -0.06250,  -0.00781,  -0.03125,   0.02344,  -0.01562,  -0.03125,  -0.04688,  -0.01562,   0.04688,  -0.00781,   0.00000,  -0.02344,  -0.00781,  -0.09375,   0.05469,   0.03906,   0.01562,   0.00781,  -0.03125,  -0.07031,   0.00781,   0.00781,   0.00000,  -0.03906,   0.03906,   0.09375,  -0.02344,   0.01562
  -0.04688,  -0.00781,   0.00781,  -0.01562,  -0.01562,  -0.00781,  -0.07031,   0.03906,  -0.01562,  -0.07812,   0.01562,  -0.04688,   0.03906,   0.03906,  -0.07812,  -0.00000,  -0.01562,  -0.01562,  -0.00000,  -0.04688,   0.15625,   0.00781,  -0.01562,  -0.05469,   0.03906,  -0.00781,   0.01562,   0.03906,   0.03906,   0.10938,  -0.04688,  -0.00781,   0.00000,  -0.02344,   0.00000,  -0.00781,   0.06250,  -0.05469,  -0.03125,  -0.00000,   0.00000,   0.02344,   0.04688,  -0.01562,   0.00000,   0.00781,  -0.00000,   0.03125,   0.02344,  -0.01562,  -0.04688,  -0.09375,   0.00000,  -0.01562,   0.03906,   0.00781,  -0.06250,  -0.03906,   0.04688,   0.03125,  -0.03125,  -0.07031,   0.00000,  -0.00781
  -0.03125,  -0.00781,  -0.02344,   0.00000,   0.00781,  -0.00781,  -0.07812,  -0.04688,   0.07031,   0.14844,  -0.05469,   0.00781,  -0.00000,  -0.01562,  -0.09375,  -0.03125,  -0.03906,  -0.01562,   0.00781,   0.03125,   0.10156,  -0.00781,  -0.03906,   0.03125,   0.03906,  -0.00000,  -0.03125,  -0.02344,   0.03906,  -0.00781,  -0.06250,  -0.00781,  -0.06250,   0.03906,   0.00781,   0.07031,   0.11719,  -0.12500,   0.03125,   0.03906,   0.02344,  -0.02344,  -0.00781,   0.03906,  -0.00781,   0.00000,   0.00781,   0.05469,   0.01562,   0.04688,  -0.15625,  -0.21094,  -0.00000,  -0.00781,  -0.04688,   0.04688,   0.00781,  -0.04688,  -0.02344,   0.07812,  -0.01562,  -0.06250,   0.03906,   0.00000
  -0.00000,   0.00781,  -0.00000,   0.00781,   0.01562,  -0.02344,  -0.00781,  -0.09375,  -0.02344,  -0.08594,   0.00000,   0.18750,  -0.01562,  -0.03125,  -0.03906,   0.03125,   0.00781,   0.03125,   0.02344,   0.02344,   0.09375,  -0.03125,  -0.03906,   0.00781,  -0.06250,  -0.01562,  -0.01562,   0.01562,   0.06250,  -0.00781,  -0.03125,  -0.02344,  -0.04688,   0.02344,  -0.00781,  -0.05469,  -0.03125,  -0.07031,  -0.00781,   0.06250,  -0.04688,  -0.01562,  -0.00781,   0.01562,   0.00781,  -0.03125,  -0.01562,  -0.04688,   0.02344,   0.01562,  -0.00781,  -0.00000,   0.00781,   0.01562,   0.00781,  -0.05469,   0.04688,   0.03125,   0.00781,   0.02344,   0.00000,  -0.03125,   0.00781,  -0.00781
   0.02344,   0.01562,   0.02344,  -0.03125,  -0.02344,   0.00000,   0.00781,   0.03125,  -0.01562,  -0.06250,  -0.01562,  -0.08594,  -0.00781,  -0.02344,   0.28125,  -0.02344,   0.03125,  -0.03906,   0.00000,   0.00781,   0.07031,   0.03125,  -0.02344,  -0.10156,   0.00000,  -0.01562,  -0.00781,   0.03125,  -0.03125,  -0.03125,   0.01562,   0.03125,   0.06250,   0.03125,  -0.02344,   0.01562,  -0.08594,   0.08594,  -0.00781,  -0.04688,   0.00781,   0.03125,   0.05469,  -0.04688,  -0.05469,   0.03125,   0.00000,  -0.02344,  -0.01562,  -0.06250,  -0.05469,   0.03125,   0.02344,   0.00000,   0.03906,   0.04688,   0.02344,   0.02344,   0.03906,  -0.00781,  -0.04688,  -0.04688,  -0.00781,   0.01562
